digraph Tree {
node [shape=box, style="filled, rounded", color="black", fontname="helvetica"] ;
edge [fontname="helvetica"] ;
0 [label="adult_male <= 0.5\nentropy = 0.955\nsamples = 712\nvalue = [444, 268]", fillcolor="#f5cdb1"] ;
1 [label="pclass <= 2.5\nentropy = 0.868\nsamples = 280\nvalue = [81.0, 199.0]", fillcolor="#8ac5f0"] ;
0 -> 1 [labeldistance=2.5, labelangle=45, headlabel="True"] ;
2 [label="age <= 27.5\nentropy = 0.222\nsamples = 140\nvalue = [5, 135]", fillcolor="#40a1e6"] ;
1 -> 2 ;
3 [label="age <= 24.5\nentropy = 0.358\nsamples = 59\nvalue = [4, 55]", fillcolor="#47a4e7"] ;
2 -> 3 ;
4 [label="fare <= 13.396\nentropy = 0.232\nsamples = 53\nvalue = [2, 51]", fillcolor="#41a1e6"] ;
3 -> 4 ;
5 [label="age <= 22.5\nentropy = 0.811\nsamples = 4\nvalue = [1, 3]", fillcolor="#7bbeee"] ;
4 -> 5 ;
6 [label="entropy = 0.0\nsamples = 2\nvalue = [0, 2]", fillcolor="#399de5"] ;
5 -> 6 ;
7 [label="deck <= 6.0\nentropy = 1.0\nsamples = 2\nvalue = [1, 1]", fillcolor="#ffffff"] ;
5 -> 7 ;
8 [label="entropy = 0.0\nsamples = 1\nvalue = [0, 1]", fillcolor="#399de5"] ;
7 -> 8 ;
9 [label="entropy = 0.0\nsamples = 1\nvalue = [1, 0]", fillcolor="#e58139"] ;
7 -> 9 ;
10 [label="fare <= 135.775\nentropy = 0.144\nsamples = 49\nvalue = [1.0, 48.0]", fillcolor="#3d9fe6"] ;
4 -> 10 ;
11 [label="entropy = 0.0\nsamples = 41\nvalue = [0, 41]", fillcolor="#399de5"] ;
10 -> 11 ;
12 [label="age <= 8.5\nentropy = 0.544\nsamples = 8\nvalue = [1, 7]", fillcolor="#55abe9"] ;
10 -> 12 ;
13 [label="age <= 1.46\nentropy = 1.0\nsamples = 2\nvalue = [1, 1]", fillcolor="#ffffff"] ;
12 -> 13 ;
14 [label="entropy = 0.0\nsamples = 1\nvalue = [0, 1]", fillcolor="#399de5"] ;
13 -> 14 ;
15 [label="entropy = 0.0\nsamples = 1\nvalue = [1, 0]", fillcolor="#e58139"] ;
13 -> 15 ;
16 [label="entropy = 0.0\nsamples = 6\nvalue = [0, 6]", fillcolor="#399de5"] ;
12 -> 16 ;
17 [label="pclass <= 1.5\nentropy = 0.918\nsamples = 6\nvalue = [2, 4]", fillcolor="#9ccef2"] ;
3 -> 17 ;
18 [label="entropy = 0.0\nsamples = 1\nvalue = [1, 0]", fillcolor="#e58139"] ;
17 -> 18 ;
19 [label="parch <= 0.5\nentropy = 0.722\nsamples = 5\nvalue = [1, 4]", fillcolor="#6ab6ec"] ;
17 -> 19 ;
20 [label="fare <= 17.429\nentropy = 0.918\nsamples = 3\nvalue = [1, 2]", fillcolor="#9ccef2"] ;
19 -> 20 ;
21 [label="entropy = 0.0\nsamples = 2\nvalue = [0, 2]", fillcolor="#399de5"] ;
20 -> 21 ;
22 [label="entropy = 0.0\nsamples = 1\nvalue = [1, 0]", fillcolor="#e58139"] ;
20 -> 22 ;
23 [label="entropy = 0.0\nsamples = 2\nvalue = [0, 2]", fillcolor="#399de5"] ;
19 -> 23 ;
24 [label="age <= 49.5\nentropy = 0.096\nsamples = 81\nvalue = [1, 80]", fillcolor="#3b9ee5"] ;
2 -> 24 ;
25 [label="entropy = 0.0\nsamples = 65\nvalue = [0, 65]", fillcolor="#399de5"] ;
24 -> 25 ;
26 [label="age <= 50.5\nentropy = 0.337\nsamples = 16\nvalue = [1, 15]", fillcolor="#46a4e7"] ;
24 -> 26 ;
27 [label="class <= 0.5\nentropy = 0.811\nsamples = 4\nvalue = [1, 3]", fillcolor="#7bbeee"] ;
26 -> 27 ;
28 [label="entropy = 0.0\nsamples = 1\nvalue = [1, 0]", fillcolor="#e58139"] ;
27 -> 28 ;
29 [label="entropy = 0.0\nsamples = 3\nvalue = [0, 3]", fillcolor="#399de5"] ;
27 -> 29 ;
30 [label="entropy = 0.0\nsamples = 12\nvalue = [0, 12]", fillcolor="#399de5"] ;
26 -> 30 ;
31 [label="fare <= 23.35\nentropy = 0.995\nsamples = 140\nvalue = [76, 64]", fillcolor="#fbebe0"] ;
1 -> 31 ;
32 [label="age <= 1.5\nentropy = 0.973\nsamples = 104\nvalue = [42, 62]", fillcolor="#bfdff7"] ;
31 -> 32 ;
33 [label="entropy = 0.0\nsamples = 6\nvalue = [0, 6]", fillcolor="#399de5"] ;
32 -> 33 ;
34 [label="fare <= 21.55\nentropy = 0.985\nsamples = 98\nvalue = [42, 56]", fillcolor="#cee6f8"] ;
32 -> 34 ;
35 [label="fare <= 20.8\nentropy = 0.992\nsamples = 94\nvalue = [42, 52]", fillcolor="#d9ecfa"] ;
34 -> 35 ;
36 [label="fare <= 15.373\nentropy = 0.982\nsamples = 90\nvalue = [38.0, 52.0]", fillcolor="#cae5f8"] ;
35 -> 36 ;
37 [label="fare <= 13.908\nentropy = 0.998\nsamples = 72\nvalue = [34, 38]", fillcolor="#eaf5fc"] ;
36 -> 37 ;
38 [label="fare <= 10.825\nentropy = 0.982\nsamples = 64\nvalue = [27, 37]", fillcolor="#c9e5f8"] ;
37 -> 38 ;
39 [label="fare <= 8.04\nentropy = 0.999\nsamples = 56\nvalue = [27.0, 29.0]", fillcolor="#f1f8fd"] ;
38 -> 39 ;
40 [label="alone <= 0.5\nentropy = 0.927\nsamples = 38\nvalue = [13, 25]", fillcolor="#a0d0f3"] ;
39 -> 40 ;
41 [label="sibsp <= 2.5\nentropy = 0.811\nsamples = 4\nvalue = [3, 1]", fillcolor="#eeab7b"] ;
40 -> 41 ;
42 [label="entropy = 0.0\nsamples = 3\nvalue = [3, 0]", fillcolor="#e58139"] ;
41 -> 42 ;
43 [label="entropy = 0.0\nsamples = 1\nvalue = [0, 1]", fillcolor="#399de5"] ;
41 -> 43 ;
44 [label="embarked <= 0.5\nentropy = 0.874\nsamples = 34\nvalue = [10, 24]", fillcolor="#8bc6f0"] ;
40 -> 44 ;
45 [label="entropy = 0.0\nsamples = 4\nvalue = [0, 4]", fillcolor="#399de5"] ;
44 -> 45 ;
46 [label="age <= 14.5\nentropy = 0.918\nsamples = 30\nvalue = [10, 20]", fillcolor="#9ccef2"] ;
44 -> 46 ;
47 [label="entropy = 0.0\nsamples = 1\nvalue = [1, 0]", fillcolor="#e58139"] ;
46 -> 47 ;
48 [label="age <= 36.5\nentropy = 0.894\nsamples = 29\nvalue = [9, 20]", fillcolor="#92c9f1"] ;
46 -> 48 ;
49 [label="fare <= 7.0\nentropy = 0.863\nsamples = 28\nvalue = [8, 20]", fillcolor="#88c4ef"] ;
48 -> 49 ;
50 [label="entropy = 0.0\nsamples = 1\nvalue = [1, 0]", fillcolor="#e58139"] ;
49 -> 50 ;
51 [label="fare <= 7.59\nentropy = 0.826\nsamples = 27\nvalue = [7, 20]", fillcolor="#7ebfee"] ;
49 -> 51 ;
52 [label="entropy = 0.0\nsamples = 3\nvalue = [0, 3]", fillcolor="#399de5"] ;
51 -> 52 ;
53 [label="fare <= 7.64\nentropy = 0.871\nsamples = 24\nvalue = [7, 17]", fillcolor="#8bc5f0"] ;
51 -> 53 ;
54 [label="entropy = 0.0\nsamples = 1\nvalue = [1, 0]", fillcolor="#e58139"] ;
53 -> 54 ;
55 [label="fare <= 7.744\nentropy = 0.828\nsamples = 23\nvalue = [6, 17]", fillcolor="#7fc0ee"] ;
53 -> 55 ;
56 [label="entropy = 0.0\nsamples = 4\nvalue = [0, 4]", fillcolor="#399de5"] ;
55 -> 56 ;
57 [label="age <= 25.5\nentropy = 0.9\nsamples = 19\nvalue = [6, 13]", fillcolor="#94caf1"] ;
55 -> 57 ;
58 [label="age <= 22.5\nentropy = 0.985\nsamples = 7\nvalue = [4, 3]", fillcolor="#f8e0ce"] ;
57 -> 58 ;
59 [label="age <= 21.5\nentropy = 0.971\nsamples = 5\nvalue = [2, 3]", fillcolor="#bddef6"] ;
58 -> 59 ;
60 [label="who <= 1.0\nentropy = 0.918\nsamples = 3\nvalue = [2, 1]", fillcolor="#f2c09c"] ;
59 -> 60 ;
61 [label="entropy = 0.0\nsamples = 1\nvalue = [0, 1]", fillcolor="#399de5"] ;
60 -> 61 ;
62 [label="entropy = 0.0\nsamples = 2\nvalue = [2, 0]", fillcolor="#e58139"] ;
60 -> 62 ;
63 [label="entropy = 0.0\nsamples = 2\nvalue = [0, 2]", fillcolor="#399de5"] ;
59 -> 63 ;
64 [label="entropy = 0.0\nsamples = 2\nvalue = [2, 0]", fillcolor="#e58139"] ;
58 -> 64 ;
65 [label="age <= 27.5\nentropy = 0.65\nsamples = 12\nvalue = [2, 10]", fillcolor="#61b1ea"] ;
57 -> 65 ;
66 [label="entropy = 0.0\nsamples = 3\nvalue = [0, 3]", fillcolor="#399de5"] ;
65 -> 66 ;
67 [label="fare <= 7.888\nentropy = 0.764\nsamples = 9\nvalue = [2, 7]", fillcolor="#72b9ec"] ;
65 -> 67 ;
68 [label="fare <= 7.815\nentropy = 0.544\nsamples = 8\nvalue = [1, 7]", fillcolor="#55abe9"] ;
67 -> 68 ;
69 [label="entropy = 0.65\nsamples = 6\nvalue = [1, 5]", fillcolor="#61b1ea"] ;
68 -> 69 ;
70 [label="entropy = 0.0\nsamples = 2\nvalue = [0, 2]", fillcolor="#399de5"] ;
68 -> 70 ;
71 [label="entropy = 0.0\nsamples = 1\nvalue = [1, 0]", fillcolor="#e58139"] ;
67 -> 71 ;
72 [label="entropy = 0.0\nsamples = 1\nvalue = [1, 0]", fillcolor="#e58139"] ;
48 -> 72 ;
73 [label="age <= 19.0\nentropy = 0.764\nsamples = 18\nvalue = [14, 4]", fillcolor="#eca572"] ;
39 -> 73 ;
74 [label="fare <= 10.152\nentropy = 0.918\nsamples = 3\nvalue = [1, 2]", fillcolor="#9ccef2"] ;
73 -> 74 ;
75 [label="entropy = 0.0\nsamples = 2\nvalue = [0, 2]", fillcolor="#399de5"] ;
74 -> 75 ;
76 [label="entropy = 0.0\nsamples = 1\nvalue = [1, 0]", fillcolor="#e58139"] ;
74 -> 76 ;
77 [label="age <= 30.5\nentropy = 0.567\nsamples = 15\nvalue = [13, 2]", fillcolor="#e99457"] ;
73 -> 77 ;
78 [label="entropy = 0.0\nsamples = 11\nvalue = [11, 0]", fillcolor="#e58139"] ;
77 -> 78 ;
79 [label="fare <= 9.079\nentropy = 1.0\nsamples = 4\nvalue = [2, 2]", fillcolor="#ffffff"] ;
77 -> 79 ;
80 [label="entropy = 0.0\nsamples = 1\nvalue = [0, 1]", fillcolor="#399de5"] ;
79 -> 80 ;
81 [label="age <= 51.5\nentropy = 0.918\nsamples = 3\nvalue = [2, 1]", fillcolor="#f2c09c"] ;
79 -> 81 ;
82 [label="entropy = 0.0\nsamples = 2\nvalue = [2, 0]", fillcolor="#e58139"] ;
81 -> 82 ;
83 [label="entropy = 0.0\nsamples = 1\nvalue = [0, 1]", fillcolor="#399de5"] ;
81 -> 83 ;
84 [label="entropy = 0.0\nsamples = 8\nvalue = [0, 8]", fillcolor="#399de5"] ;
38 -> 84 ;
85 [label="fare <= 14.873\nentropy = 0.544\nsamples = 8\nvalue = [7, 1]", fillcolor="#e99355"] ;
37 -> 85 ;
86 [label="entropy = 0.0\nsamples = 6\nvalue = [6, 0]", fillcolor="#e58139"] ;
85 -> 86 ;
87 [label="age <= 28.5\nentropy = 1.0\nsamples = 2\nvalue = [1, 1]", fillcolor="#ffffff"] ;
85 -> 87 ;
88 [label="entropy = 0.0\nsamples = 1\nvalue = [1, 0]", fillcolor="#e58139"] ;
87 -> 88 ;
89 [label="entropy = 0.0\nsamples = 1\nvalue = [0, 1]", fillcolor="#399de5"] ;
87 -> 89 ;
90 [label="fare <= 16.0\nentropy = 0.764\nsamples = 18\nvalue = [4, 14]", fillcolor="#72b9ec"] ;
36 -> 90 ;
91 [label="entropy = 0.0\nsamples = 7\nvalue = [0, 7]", fillcolor="#399de5"] ;
90 -> 91 ;
92 [label="age <= 21.0\nentropy = 0.946\nsamples = 11\nvalue = [4, 7]", fillcolor="#aad5f4"] ;
90 -> 92 ;
93 [label="entropy = 0.0\nsamples = 2\nvalue = [2, 0]", fillcolor="#e58139"] ;
92 -> 93 ;
94 [label="parch <= 0.5\nentropy = 0.764\nsamples = 9\nvalue = [2, 7]", fillcolor="#72b9ec"] ;
92 -> 94 ;
95 [label="age <= 27.0\nentropy = 0.971\nsamples = 5\nvalue = [2, 3]", fillcolor="#bddef6"] ;
94 -> 95 ;
96 [label="entropy = 0.0\nsamples = 1\nvalue = [1, 0]", fillcolor="#e58139"] ;
95 -> 96 ;
97 [label="fare <= 17.7\nentropy = 0.811\nsamples = 4\nvalue = [1, 3]", fillcolor="#7bbeee"] ;
95 -> 97 ;
98 [label="entropy = 0.0\nsamples = 3\nvalue = [0, 3]", fillcolor="#399de5"] ;
97 -> 98 ;
99 [label="entropy = 0.0\nsamples = 1\nvalue = [1, 0]", fillcolor="#e58139"] ;
97 -> 99 ;
100 [label="entropy = 0.0\nsamples = 4\nvalue = [0, 4]", fillcolor="#399de5"] ;
94 -> 100 ;
101 [label="entropy = 0.0\nsamples = 4\nvalue = [4, 0]", fillcolor="#e58139"] ;
35 -> 101 ;
102 [label="entropy = 0.0\nsamples = 4\nvalue = [0, 4]", fillcolor="#399de5"] ;
34 -> 102 ;
103 [label="age <= 5.5\nentropy = 0.31\nsamples = 36\nvalue = [34, 2]", fillcolor="#e78845"] ;
31 -> 103 ;
104 [label="age <= 2.5\nentropy = 0.722\nsamples = 10\nvalue = [8, 2]", fillcolor="#eca06a"] ;
103 -> 104 ;
105 [label="entropy = 0.0\nsamples = 6\nvalue = [6, 0]", fillcolor="#e58139"] ;
104 -> 105 ;
106 [label="fare <= 31.331\nentropy = 1.0\nsamples = 4\nvalue = [2, 2]", fillcolor="#ffffff"] ;
104 -> 106 ;
107 [label="entropy = 0.0\nsamples = 2\nvalue = [2, 0]", fillcolor="#e58139"] ;
106 -> 107 ;
108 [label="entropy = 0.0\nsamples = 2\nvalue = [0, 2]", fillcolor="#399de5"] ;
106 -> 108 ;
109 [label="entropy = 0.0\nsamples = 26\nvalue = [26, 0]", fillcolor="#e58139"] ;
103 -> 109 ;
110 [label="deck <= 4.5\nentropy = 0.634\nsamples = 432\nvalue = [363, 69]", fillcolor="#ea995f"] ;
0 -> 110 [labeldistance=2.5, labelangle=-45, headlabel="False"] ;
111 [label="fare <= 6.525\nentropy = 0.966\nsamples = 74\nvalue = [45, 29]", fillcolor="#f6d2b9"] ;
110 -> 111 ;
112 [label="entropy = 0.0\nsamples = 4\nvalue = [4, 0]", fillcolor="#e58139"] ;
111 -> 112 ;
113 [label="age <= 43.0\nentropy = 0.979\nsamples = 70\nvalue = [41.0, 29.0]", fillcolor="#f7dac5"] ;
111 -> 113 ;
114 [label="deck <= 0.5\nentropy = 1.0\nsamples = 41\nvalue = [20, 21]", fillcolor="#f6fafe"] ;
113 -> 114 ;
115 [label="entropy = 0.0\nsamples = 5\nvalue = [5, 0]", fillcolor="#e58139"] ;
114 -> 115 ;
116 [label="deck <= 3.5\nentropy = 0.98\nsamples = 36\nvalue = [15, 21]", fillcolor="#c6e3f8"] ;
114 -> 116 ;
117 [label="age <= 24.5\nentropy = 0.999\nsamples = 31\nvalue = [15, 16]", fillcolor="#f3f9fd"] ;
116 -> 117 ;
118 [label="age <= 17.5\nentropy = 0.65\nsamples = 6\nvalue = [5, 1]", fillcolor="#ea9a61"] ;
117 -> 118 ;
119 [label="entropy = 0.0\nsamples = 1\nvalue = [0, 1]", fillcolor="#399de5"] ;
118 -> 119 ;
120 [label="entropy = 0.0\nsamples = 5\nvalue = [5, 0]", fillcolor="#e58139"] ;
118 -> 120 ;
121 [label="deck <= 1.5\nentropy = 0.971\nsamples = 25\nvalue = [10, 15]", fillcolor="#bddef6"] ;
117 -> 121 ;
122 [label="fare <= 54.5\nentropy = 0.592\nsamples = 7\nvalue = [1, 6]", fillcolor="#5aade9"] ;
121 -> 122 ;
123 [label="embarked <= 1.0\nentropy = 1.0\nsamples = 2\nvalue = [1, 1]", fillcolor="#ffffff"] ;
122 -> 123 ;
124 [label="entropy = 0.0\nsamples = 1\nvalue = [0, 1]", fillcolor="#399de5"] ;
123 -> 124 ;
125 [label="entropy = 0.0\nsamples = 1\nvalue = [1, 0]", fillcolor="#e58139"] ;
123 -> 125 ;
126 [label="entropy = 0.0\nsamples = 5\nvalue = [0, 5]", fillcolor="#399de5"] ;
122 -> 126 ;
127 [label="fare <= 121.731\nentropy = 1.0\nsamples = 18\nvalue = [9, 9]", fillcolor="#ffffff"] ;
121 -> 127 ;
128 [label="age <= 28.5\nentropy = 0.989\nsamples = 16\nvalue = [7, 9]", fillcolor="#d3e9f9"] ;
127 -> 128 ;
129 [label="deck <= 2.5\nentropy = 0.811\nsamples = 8\nvalue = [2, 6]", fillcolor="#7bbeee"] ;
128 -> 129 ;
130 [label="embark_town <= 1.0\nentropy = 0.918\nsamples = 6\nvalue = [2, 4]", fillcolor="#9ccef2"] ;
129 -> 130 ;
131 [label="entropy = 0.0\nsamples = 1\nvalue = [0, 1]", fillcolor="#399de5"] ;
130 -> 131 ;
132 [label="fare <= 35.25\nentropy = 0.971\nsamples = 5\nvalue = [2, 3]", fillcolor="#bddef6"] ;
130 -> 132 ;
133 [label="fare <= 32.75\nentropy = 1.0\nsamples = 4\nvalue = [2, 2]", fillcolor="#ffffff"] ;
132 -> 133 ;
134 [label="fare <= 28.525\nentropy = 0.918\nsamples = 3\nvalue = [1, 2]", fillcolor="#9ccef2"] ;
133 -> 134 ;
135 [label="entropy = 1.0\nsamples = 2\nvalue = [1, 1]", fillcolor="#ffffff"] ;
134 -> 135 ;
136 [label="entropy = 0.0\nsamples = 1\nvalue = [0, 1]", fillcolor="#399de5"] ;
134 -> 136 ;
137 [label="entropy = 0.0\nsamples = 1\nvalue = [1, 0]", fillcolor="#e58139"] ;
133 -> 137 ;
138 [label="entropy = 0.0\nsamples = 1\nvalue = [0, 1]", fillcolor="#399de5"] ;
132 -> 138 ;
139 [label="entropy = 0.0\nsamples = 2\nvalue = [0, 2]", fillcolor="#399de5"] ;
129 -> 139 ;
140 [label="age <= 32.0\nentropy = 0.954\nsamples = 8\nvalue = [5, 3]", fillcolor="#f5cdb0"] ;
128 -> 140 ;
141 [label="entropy = 0.0\nsamples = 3\nvalue = [3, 0]", fillcolor="#e58139"] ;
140 -> 141 ;
142 [label="deck <= 2.5\nentropy = 0.971\nsamples = 5\nvalue = [2, 3]", fillcolor="#bddef6"] ;
140 -> 142 ;
143 [label="fare <= 84.425\nentropy = 0.918\nsamples = 3\nvalue = [2, 1]", fillcolor="#f2c09c"] ;
142 -> 143 ;
144 [label="entropy = 0.0\nsamples = 2\nvalue = [2, 0]", fillcolor="#e58139"] ;
143 -> 144 ;
145 [label="entropy = 0.0\nsamples = 1\nvalue = [0, 1]", fillcolor="#399de5"] ;
143 -> 145 ;
146 [label="entropy = 0.0\nsamples = 2\nvalue = [0, 2]", fillcolor="#399de5"] ;
142 -> 146 ;
147 [label="entropy = 0.0\nsamples = 2\nvalue = [2, 0]", fillcolor="#e58139"] ;
127 -> 147 ;
148 [label="entropy = 0.0\nsamples = 5\nvalue = [0, 5]", fillcolor="#399de5"] ;
116 -> 148 ;
149 [label="age <= 47.5\nentropy = 0.85\nsamples = 29\nvalue = [21, 8]", fillcolor="#efb184"] ;
113 -> 149 ;
150 [label="entropy = 0.0\nsamples = 8\nvalue = [8, 0]", fillcolor="#e58139"] ;
149 -> 150 ;
151 [label="age <= 48.5\nentropy = 0.959\nsamples = 21\nvalue = [13, 8]", fillcolor="#f5cfb3"] ;
149 -> 151 ;
152 [label="entropy = 0.0\nsamples = 2\nvalue = [0, 2]", fillcolor="#399de5"] ;
151 -> 152 ;
153 [label="deck <= 0.5\nentropy = 0.9\nsamples = 19\nvalue = [13, 6]", fillcolor="#f1bb94"] ;
151 -> 153 ;
154 [label="entropy = 0.0\nsamples = 2\nvalue = [0, 2]", fillcolor="#399de5"] ;
153 -> 154 ;
155 [label="age <= 60.5\nentropy = 0.787\nsamples = 17\nvalue = [13, 4]", fillcolor="#eda876"] ;
153 -> 155 ;
156 [label="age <= 59.0\nentropy = 0.918\nsamples = 12\nvalue = [8, 4]", fillcolor="#f2c09c"] ;
155 -> 156 ;
157 [label="age <= 53.0\nentropy = 0.845\nsamples = 11\nvalue = [8, 3]", fillcolor="#efb083"] ;
156 -> 157 ;
158 [label="sibsp <= 0.5\nentropy = 0.985\nsamples = 7\nvalue = [4, 3]", fillcolor="#f8e0ce"] ;
157 -> 158 ;
159 [label="entropy = 0.0\nsamples = 2\nvalue = [0, 2]", fillcolor="#399de5"] ;
158 -> 159 ;
160 [label="age <= 49.5\nentropy = 0.722\nsamples = 5\nvalue = [4, 1]", fillcolor="#eca06a"] ;
158 -> 160 ;
161 [label="fare <= 99.994\nentropy = 1.0\nsamples = 2\nvalue = [1, 1]", fillcolor="#ffffff"] ;
160 -> 161 ;
162 [label="entropy = 0.0\nsamples = 1\nvalue = [0, 1]", fillcolor="#399de5"] ;
161 -> 162 ;
163 [label="entropy = 0.0\nsamples = 1\nvalue = [1, 0]", fillcolor="#e58139"] ;
161 -> 163 ;
164 [label="entropy = 0.0\nsamples = 3\nvalue = [3, 0]", fillcolor="#e58139"] ;
160 -> 164 ;
165 [label="entropy = 0.0\nsamples = 4\nvalue = [4, 0]", fillcolor="#e58139"] ;
157 -> 165 ;
166 [label="entropy = 0.0\nsamples = 1\nvalue = [0, 1]", fillcolor="#399de5"] ;
156 -> 166 ;
167 [label="entropy = 0.0\nsamples = 5\nvalue = [5, 0]", fillcolor="#e58139"] ;
155 -> 167 ;
168 [label="fare <= 54.248\nentropy = 0.505\nsamples = 358\nvalue = [318, 40]", fillcolor="#e89152"] ;
110 -> 168 ;
169 [label="age <= 32.25\nentropy = 0.478\nsamples = 340\nvalue = [305, 35]", fillcolor="#e88f50"] ;
168 -> 169 ;
170 [label="age <= 30.5\nentropy = 0.536\nsamples = 245\nvalue = [215, 30]", fillcolor="#e99355"] ;
169 -> 170 ;
171 [label="embarked <= 0.5\nentropy = 0.508\nsamples = 231\nvalue = [205, 26]", fillcolor="#e89152"] ;
170 -> 171 ;
172 [label="age <= 22.5\nentropy = 0.734\nsamples = 34\nvalue = [27, 7]", fillcolor="#eca26c"] ;
171 -> 172 ;
173 [label="fare <= 5.619\nentropy = 0.971\nsamples = 5\nvalue = [2, 3]", fillcolor="#bddef6"] ;
172 -> 173 ;
174 [label="entropy = 0.0\nsamples = 1\nvalue = [1, 0]", fillcolor="#e58139"] ;
173 -> 174 ;
175 [label="age <= 21.0\nentropy = 0.811\nsamples = 4\nvalue = [1, 3]", fillcolor="#7bbeee"] ;
173 -> 175 ;
176 [label="entropy = 0.0\nsamples = 2\nvalue = [0, 2]", fillcolor="#399de5"] ;
175 -> 176 ;
177 [label="fare <= 7.227\nentropy = 1.0\nsamples = 2\nvalue = [1, 1]", fillcolor="#ffffff"] ;
175 -> 177 ;
178 [label="entropy = 0.0\nsamples = 1\nvalue = [0, 1]", fillcolor="#399de5"] ;
177 -> 178 ;
179 [label="entropy = 0.0\nsamples = 1\nvalue = [1, 0]", fillcolor="#e58139"] ;
177 -> 179 ;
180 [label="fare <= 20.233\nentropy = 0.579\nsamples = 29\nvalue = [25, 4]", fillcolor="#e99559"] ;
172 -> 180 ;
181 [label="fare <= 16.919\nentropy = 0.684\nsamples = 22\nvalue = [18, 4]", fillcolor="#eb9d65"] ;
180 -> 181 ;
182 [label="fare <= 7.227\nentropy = 0.592\nsamples = 21\nvalue = [18, 3]", fillcolor="#e9965a"] ;
181 -> 182 ;
183 [label="entropy = 0.0\nsamples = 5\nvalue = [5, 0]", fillcolor="#e58139"] ;
182 -> 183 ;
184 [label="fare <= 14.158\nentropy = 0.696\nsamples = 16\nvalue = [13, 3]", fillcolor="#eb9e67"] ;
182 -> 184 ;
185 [label="pclass <= 2.5\nentropy = 0.811\nsamples = 12\nvalue = [9, 3]", fillcolor="#eeab7b"] ;
184 -> 185 ;
186 [label="entropy = 0.0\nsamples = 1\nvalue = [0, 1]", fillcolor="#399de5"] ;
185 -> 186 ;
187 [label="age <= 28.75\nentropy = 0.684\nsamples = 11\nvalue = [9, 2]", fillcolor="#eb9d65"] ;
185 -> 187 ;
188 [label="fare <= 7.562\nentropy = 0.503\nsamples = 9\nvalue = [8, 1]", fillcolor="#e89152"] ;
187 -> 188 ;
189 [label="age <= 28.25\nentropy = 0.592\nsamples = 7\nvalue = [6, 1]", fillcolor="#e9965a"] ;
188 -> 189 ;
190 [label="entropy = 0.65\nsamples = 6\nvalue = [5, 1]", fillcolor="#ea9a61"] ;
189 -> 190 ;
191 [label="entropy = 0.0\nsamples = 1\nvalue = [1, 0]", fillcolor="#e58139"] ;
189 -> 191 ;
192 [label="entropy = 0.0\nsamples = 2\nvalue = [2, 0]", fillcolor="#e58139"] ;
188 -> 192 ;
193 [label="fare <= 7.562\nentropy = 1.0\nsamples = 2\nvalue = [1, 1]", fillcolor="#ffffff"] ;
187 -> 193 ;
194 [label="entropy = 0.0\nsamples = 1\nvalue = [1, 0]", fillcolor="#e58139"] ;
193 -> 194 ;
195 [label="entropy = 0.0\nsamples = 1\nvalue = [0, 1]", fillcolor="#399de5"] ;
193 -> 195 ;
196 [label="entropy = 0.0\nsamples = 4\nvalue = [4, 0]", fillcolor="#e58139"] ;
184 -> 196 ;
197 [label="entropy = 0.0\nsamples = 1\nvalue = [0, 1]", fillcolor="#399de5"] ;
181 -> 197 ;
198 [label="entropy = 0.0\nsamples = 7\nvalue = [7, 0]", fillcolor="#e58139"] ;
180 -> 198 ;
199 [label="fare <= 7.798\nentropy = 0.458\nsamples = 197\nvalue = [178, 19]", fillcolor="#e88e4e"] ;
171 -> 199 ;
200 [label="age <= 20.5\nentropy = 0.623\nsamples = 58\nvalue = [49, 9]", fillcolor="#ea985d"] ;
199 -> 200 ;
201 [label="entropy = 0.0\nsamples = 10\nvalue = [10, 0]", fillcolor="#e58139"] ;
200 -> 201 ;
202 [label="fare <= 7.763\nentropy = 0.696\nsamples = 48\nvalue = [39, 9]", fillcolor="#eb9e67"] ;
200 -> 202 ;
203 [label="age <= 23.0\nentropy = 0.552\nsamples = 39\nvalue = [34, 5]", fillcolor="#e99456"] ;
202 -> 203 ;
204 [label="entropy = 0.0\nsamples = 7\nvalue = [7, 0]", fillcolor="#e58139"] ;
203 -> 204 ;
205 [label="age <= 27.5\nentropy = 0.625\nsamples = 32\nvalue = [27, 5]", fillcolor="#ea985e"] ;
203 -> 205 ;
206 [label="fare <= 7.013\nentropy = 0.985\nsamples = 7\nvalue = [4, 3]", fillcolor="#f8e0ce"] ;
205 -> 206 ;
207 [label="entropy = 0.0\nsamples = 2\nvalue = [0, 2]", fillcolor="#399de5"] ;
206 -> 207 ;
208 [label="age <= 24.5\nentropy = 0.722\nsamples = 5\nvalue = [4, 1]", fillcolor="#eca06a"] ;
206 -> 208 ;
209 [label="entropy = 0.0\nsamples = 1\nvalue = [0, 1]", fillcolor="#399de5"] ;
208 -> 209 ;
210 [label="entropy = 0.0\nsamples = 4\nvalue = [4, 0]", fillcolor="#e58139"] ;
208 -> 210 ;
211 [label="fare <= 7.742\nentropy = 0.402\nsamples = 25\nvalue = [23, 2]", fillcolor="#e78c4a"] ;
205 -> 211 ;
212 [label="entropy = 0.0\nsamples = 15\nvalue = [15, 0]", fillcolor="#e58139"] ;
211 -> 212 ;
213 [label="age <= 28.5\nentropy = 0.722\nsamples = 10\nvalue = [8, 2]", fillcolor="#eca06a"] ;
211 -> 213 ;
214 [label="sibsp <= 0.5\nentropy = 0.503\nsamples = 9\nvalue = [8, 1]", fillcolor="#e89152"] ;
213 -> 214 ;
215 [label="deck <= 6.0\nentropy = 0.544\nsamples = 8\nvalue = [7, 1]", fillcolor="#e99355"] ;
214 -> 215 ;
216 [label="entropy = 0.0\nsamples = 1\nvalue = [1, 0]", fillcolor="#e58139"] ;
215 -> 216 ;
217 [label="entropy = 0.592\nsamples = 7\nvalue = [6, 1]", fillcolor="#e9965a"] ;
215 -> 217 ;
218 [label="entropy = 0.0\nsamples = 1\nvalue = [1, 0]", fillcolor="#e58139"] ;
214 -> 218 ;
219 [label="entropy = 0.0\nsamples = 1\nvalue = [0, 1]", fillcolor="#399de5"] ;
213 -> 219 ;
220 [label="sibsp <= 0.5\nentropy = 0.991\nsamples = 9\nvalue = [5, 4]", fillcolor="#fae6d7"] ;
202 -> 220 ;
221 [label="age <= 21.5\nentropy = 0.954\nsamples = 8\nvalue = [5, 3]", fillcolor="#f5cdb0"] ;
220 -> 221 ;
222 [label="entropy = 0.0\nsamples = 1\nvalue = [0, 1]", fillcolor="#399de5"] ;
221 -> 222 ;
223 [label="age <= 26.5\nentropy = 0.863\nsamples = 7\nvalue = [5, 2]", fillcolor="#efb388"] ;
221 -> 223 ;
224 [label="entropy = 0.0\nsamples = 3\nvalue = [3, 0]", fillcolor="#e58139"] ;
223 -> 224 ;
225 [label="age <= 27.5\nentropy = 1.0\nsamples = 4\nvalue = [2, 2]", fillcolor="#ffffff"] ;
223 -> 225 ;
226 [label="entropy = 0.0\nsamples = 1\nvalue = [0, 1]", fillcolor="#399de5"] ;
225 -> 226 ;
227 [label="fare <= 7.785\nentropy = 0.918\nsamples = 3\nvalue = [2, 1]", fillcolor="#f2c09c"] ;
225 -> 227 ;
228 [label="entropy = 1.0\nsamples = 2\nvalue = [1, 1]", fillcolor="#ffffff"] ;
227 -> 228 ;
229 [label="entropy = 0.0\nsamples = 1\nvalue = [1, 0]", fillcolor="#e58139"] ;
227 -> 229 ;
230 [label="entropy = 0.0\nsamples = 1\nvalue = [0, 1]", fillcolor="#399de5"] ;
220 -> 230 ;
231 [label="fare <= 7.91\nentropy = 0.373\nsamples = 139\nvalue = [129, 10]", fillcolor="#e78b48"] ;
199 -> 231 ;
232 [label="entropy = 0.0\nsamples = 29\nvalue = [29, 0]", fillcolor="#e58139"] ;
231 -> 232 ;
233 [label="parch <= 0.5\nentropy = 0.439\nsamples = 110\nvalue = [100, 10]", fillcolor="#e88e4d"] ;
231 -> 233 ;
234 [label="age <= 20.5\nentropy = 0.46\nsamples = 103\nvalue = [93, 10]", fillcolor="#e88f4e"] ;
233 -> 234 ;
235 [label="fare <= 8.175\nentropy = 0.65\nsamples = 24\nvalue = [20, 4]", fillcolor="#ea9a61"] ;
234 -> 235 ;
236 [label="sibsp <= 0.5\nentropy = 1.0\nsamples = 6\nvalue = [3, 3]", fillcolor="#ffffff"] ;
235 -> 236 ;
237 [label="age <= 19.5\nentropy = 0.971\nsamples = 5\nvalue = [3, 2]", fillcolor="#f6d5bd"] ;
236 -> 237 ;
238 [label="age <= 17.5\nentropy = 1.0\nsamples = 4\nvalue = [2, 2]", fillcolor="#ffffff"] ;
237 -> 238 ;
239 [label="entropy = 1.0\nsamples = 2\nvalue = [1, 1]", fillcolor="#ffffff"] ;
238 -> 239 ;
240 [label="entropy = 1.0\nsamples = 2\nvalue = [1, 1]", fillcolor="#ffffff"] ;
238 -> 240 ;
241 [label="entropy = 0.0\nsamples = 1\nvalue = [1, 0]", fillcolor="#e58139"] ;
237 -> 241 ;
242 [label="entropy = 0.0\nsamples = 1\nvalue = [0, 1]", fillcolor="#399de5"] ;
236 -> 242 ;
243 [label="age <= 18.5\nentropy = 0.31\nsamples = 18\nvalue = [17, 1]", fillcolor="#e78845"] ;
235 -> 243 ;
244 [label="entropy = 0.0\nsamples = 11\nvalue = [11, 0]", fillcolor="#e58139"] ;
243 -> 244 ;
245 [label="class <= 1.5\nentropy = 0.592\nsamples = 7\nvalue = [6, 1]", fillcolor="#e9965a"] ;
243 -> 245 ;
246 [label="fare <= 11.75\nentropy = 0.918\nsamples = 3\nvalue = [2, 1]", fillcolor="#f2c09c"] ;
245 -> 246 ;
247 [label="entropy = 1.0\nsamples = 2\nvalue = [1, 1]", fillcolor="#ffffff"] ;
246 -> 247 ;
248 [label="entropy = 0.0\nsamples = 1\nvalue = [1, 0]", fillcolor="#e58139"] ;
246 -> 248 ;
249 [label="entropy = 0.0\nsamples = 4\nvalue = [4, 0]", fillcolor="#e58139"] ;
245 -> 249 ;
250 [label="age <= 26.5\nentropy = 0.388\nsamples = 79\nvalue = [73, 6]", fillcolor="#e78b49"] ;
234 -> 250 ;
251 [label="entropy = 0.0\nsamples = 28\nvalue = [28, 0]", fillcolor="#e58139"] ;
250 -> 251 ;
252 [label="fare <= 8.081\nentropy = 0.523\nsamples = 51\nvalue = [45, 6]", fillcolor="#e89253"] ;
250 -> 252 ;
253 [label="entropy = 0.0\nsamples = 14\nvalue = [14, 0]", fillcolor="#e58139"] ;
252 -> 253 ;
254 [label="fare <= 9.073\nentropy = 0.639\nsamples = 37\nvalue = [31, 6]", fillcolor="#ea995f"] ;
252 -> 254 ;
255 [label="age <= 27.5\nentropy = 0.918\nsamples = 3\nvalue = [1, 2]", fillcolor="#9ccef2"] ;
254 -> 255 ;
256 [label="entropy = 0.0\nsamples = 1\nvalue = [0, 1]", fillcolor="#399de5"] ;
255 -> 256 ;
257 [label="fare <= 8.388\nentropy = 1.0\nsamples = 2\nvalue = [1, 1]", fillcolor="#ffffff"] ;
255 -> 257 ;
258 [label="entropy = 0.0\nsamples = 1\nvalue = [0, 1]", fillcolor="#399de5"] ;
257 -> 258 ;
259 [label="entropy = 0.0\nsamples = 1\nvalue = [1, 0]", fillcolor="#e58139"] ;
257 -> 259 ;
260 [label="sibsp <= 1.5\nentropy = 0.523\nsamples = 34\nvalue = [30, 4]", fillcolor="#e89253"] ;
254 -> 260 ;
261 [label="sibsp <= 0.5\nentropy = 0.439\nsamples = 33\nvalue = [30, 3]", fillcolor="#e88e4d"] ;
260 -> 261 ;
262 [label="age <= 27.5\nentropy = 0.544\nsamples = 24\nvalue = [21, 3]", fillcolor="#e99355"] ;
261 -> 262 ;
263 [label="fare <= 28.25\nentropy = 0.918\nsamples = 3\nvalue = [2, 1]", fillcolor="#f2c09c"] ;
262 -> 263 ;
264 [label="entropy = 0.0\nsamples = 2\nvalue = [2, 0]", fillcolor="#e58139"] ;
263 -> 264 ;
265 [label="entropy = 0.0\nsamples = 1\nvalue = [0, 1]", fillcolor="#399de5"] ;
263 -> 265 ;
266 [label="fare <= 13.25\nentropy = 0.454\nsamples = 21\nvalue = [19, 2]", fillcolor="#e88e4e"] ;
262 -> 266 ;
267 [label="age <= 29.5\nentropy = 0.684\nsamples = 11\nvalue = [9, 2]", fillcolor="#eb9d65"] ;
266 -> 267 ;
268 [label="fare <= 11.75\nentropy = 0.811\nsamples = 8\nvalue = [6, 2]", fillcolor="#eeab7b"] ;
267 -> 268 ;
269 [label="age <= 28.5\nentropy = 0.592\nsamples = 7\nvalue = [6, 1]", fillcolor="#e9965a"] ;
268 -> 269 ;
270 [label="entropy = 0.0\nsamples = 4\nvalue = [4, 0]", fillcolor="#e58139"] ;
269 -> 270 ;
271 [label="pclass <= 2.5\nentropy = 0.918\nsamples = 3\nvalue = [2, 1]", fillcolor="#f2c09c"] ;
269 -> 271 ;
272 [label="entropy = 0.0\nsamples = 1\nvalue = [1, 0]", fillcolor="#e58139"] ;
271 -> 272 ;
273 [label="fare <= 9.492\nentropy = 1.0\nsamples = 2\nvalue = [1, 1]", fillcolor="#ffffff"] ;
271 -> 273 ;
274 [label="entropy = 0.0\nsamples = 1\nvalue = [1, 0]", fillcolor="#e58139"] ;
273 -> 274 ;
275 [label="entropy = 0.0\nsamples = 1\nvalue = [0, 1]", fillcolor="#399de5"] ;
273 -> 275 ;
276 [label="entropy = 0.0\nsamples = 1\nvalue = [0, 1]", fillcolor="#399de5"] ;
268 -> 276 ;
277 [label="entropy = 0.0\nsamples = 3\nvalue = [3, 0]", fillcolor="#e58139"] ;
267 -> 277 ;
278 [label="entropy = 0.0\nsamples = 10\nvalue = [10, 0]", fillcolor="#e58139"] ;
266 -> 278 ;
279 [label="entropy = 0.0\nsamples = 9\nvalue = [9, 0]", fillcolor="#e58139"] ;
261 -> 279 ;
280 [label="entropy = 0.0\nsamples = 1\nvalue = [0, 1]", fillcolor="#399de5"] ;
260 -> 280 ;
281 [label="entropy = 0.0\nsamples = 7\nvalue = [7, 0]", fillcolor="#e58139"] ;
233 -> 281 ;
282 [label="embark_town <= 1.5\nentropy = 0.863\nsamples = 14\nvalue = [10, 4]", fillcolor="#efb388"] ;
170 -> 282 ;
283 [label="entropy = 0.0\nsamples = 3\nvalue = [3, 0]", fillcolor="#e58139"] ;
282 -> 283 ;
284 [label="parch <= 0.5\nentropy = 0.946\nsamples = 11\nvalue = [7, 4]", fillcolor="#f4c9aa"] ;
282 -> 284 ;
285 [label="class <= 1.5\nentropy = 0.971\nsamples = 10\nvalue = [6, 4]", fillcolor="#f6d5bd"] ;
284 -> 285 ;
286 [label="entropy = 0.0\nsamples = 1\nvalue = [0, 1]", fillcolor="#399de5"] ;
285 -> 286 ;
287 [label="fare <= 8.144\nentropy = 0.918\nsamples = 9\nvalue = [6, 3]", fillcolor="#f2c09c"] ;
285 -> 287 ;
288 [label="fare <= 7.815\nentropy = 0.985\nsamples = 7\nvalue = [4, 3]", fillcolor="#f8e0ce"] ;
287 -> 288 ;
289 [label="entropy = 0.0\nsamples = 1\nvalue = [1, 0]", fillcolor="#e58139"] ;
288 -> 289 ;
290 [label="age <= 31.5\nentropy = 1.0\nsamples = 6\nvalue = [3, 3]", fillcolor="#ffffff"] ;
288 -> 290 ;
291 [label="entropy = 0.0\nsamples = 1\nvalue = [0, 1]", fillcolor="#399de5"] ;
290 -> 291 ;
292 [label="fare <= 7.875\nentropy = 0.971\nsamples = 5\nvalue = [3, 2]", fillcolor="#f6d5bd"] ;
290 -> 292 ;
293 [label="entropy = 0.0\nsamples = 1\nvalue = [0, 1]", fillcolor="#399de5"] ;
292 -> 293 ;
294 [label="fare <= 7.91\nentropy = 0.811\nsamples = 4\nvalue = [3, 1]", fillcolor="#eeab7b"] ;
292 -> 294 ;
295 [label="entropy = 0.0\nsamples = 1\nvalue = [1, 0]", fillcolor="#e58139"] ;
294 -> 295 ;
296 [label="entropy = 0.918\nsamples = 3\nvalue = [2, 1]", fillcolor="#f2c09c"] ;
294 -> 296 ;
297 [label="entropy = 0.0\nsamples = 2\nvalue = [2, 0]", fillcolor="#e58139"] ;
287 -> 297 ;
298 [label="entropy = 0.0\nsamples = 1\nvalue = [1, 0]", fillcolor="#e58139"] ;
284 -> 298 ;
299 [label="age <= 38.5\nentropy = 0.297\nsamples = 95\nvalue = [90, 5]", fillcolor="#e68844"] ;
169 -> 299 ;
300 [label="entropy = 0.0\nsamples = 34\nvalue = [34, 0]", fillcolor="#e58139"] ;
299 -> 300 ;
301 [label="fare <= 7.91\nentropy = 0.409\nsamples = 61\nvalue = [56, 5]", fillcolor="#e78c4b"] ;
299 -> 301 ;
302 [label="entropy = 0.0\nsamples = 17\nvalue = [17, 0]", fillcolor="#e58139"] ;
301 -> 302 ;
303 [label="fare <= 7.988\nentropy = 0.511\nsamples = 44\nvalue = [39, 5]", fillcolor="#e89152"] ;
301 -> 303 ;
304 [label="age <= 41.5\nentropy = 0.918\nsamples = 3\nvalue = [1, 2]", fillcolor="#9ccef2"] ;
303 -> 304 ;
305 [label="entropy = 1.0\nsamples = 2\nvalue = [1, 1]", fillcolor="#ffffff"] ;
304 -> 305 ;
306 [label="entropy = 0.0\nsamples = 1\nvalue = [0, 1]", fillcolor="#399de5"] ;
304 -> 306 ;
307 [label="pclass <= 2.5\nentropy = 0.378\nsamples = 41\nvalue = [38, 3]", fillcolor="#e78b49"] ;
303 -> 307 ;
308 [label="fare <= 11.425\nentropy = 0.491\nsamples = 28\nvalue = [25, 3]", fillcolor="#e89051"] ;
307 -> 308 ;
309 [label="age <= 66.0\nentropy = 1.0\nsamples = 2\nvalue = [1, 1]", fillcolor="#ffffff"] ;
308 -> 309 ;
310 [label="entropy = 0.0\nsamples = 1\nvalue = [0, 1]", fillcolor="#399de5"] ;
309 -> 310 ;
311 [label="entropy = 0.0\nsamples = 1\nvalue = [1, 0]", fillcolor="#e58139"] ;
309 -> 311 ;
312 [label="age <= 45.5\nentropy = 0.391\nsamples = 26\nvalue = [24, 2]", fillcolor="#e78c49"] ;
308 -> 312 ;
313 [label="alone <= 0.5\nentropy = 0.722\nsamples = 10\nvalue = [8, 2]", fillcolor="#eca06a"] ;
312 -> 313 ;
314 [label="entropy = 0.0\nsamples = 4\nvalue = [4, 0]", fillcolor="#e58139"] ;
313 -> 314 ;
315 [label="age <= 40.5\nentropy = 0.918\nsamples = 6\nvalue = [4, 2]", fillcolor="#f2c09c"] ;
313 -> 315 ;
316 [label="entropy = 0.0\nsamples = 2\nvalue = [2, 0]", fillcolor="#e58139"] ;
315 -> 316 ;
317 [label="fare <= 31.025\nentropy = 1.0\nsamples = 4\nvalue = [2, 2]", fillcolor="#ffffff"] ;
315 -> 317 ;
318 [label="pclass <= 1.5\nentropy = 0.918\nsamples = 3\nvalue = [1, 2]", fillcolor="#9ccef2"] ;
317 -> 318 ;
319 [label="entropy = 0.0\nsamples = 1\nvalue = [0, 1]", fillcolor="#399de5"] ;
318 -> 319 ;
320 [label="entropy = 1.0\nsamples = 2\nvalue = [1, 1]", fillcolor="#ffffff"] ;
318 -> 320 ;
321 [label="entropy = 0.0\nsamples = 1\nvalue = [1, 0]", fillcolor="#e58139"] ;
317 -> 321 ;
322 [label="entropy = 0.0\nsamples = 16\nvalue = [16, 0]", fillcolor="#e58139"] ;
312 -> 322 ;
323 [label="entropy = 0.0\nsamples = 13\nvalue = [13, 0]", fillcolor="#e58139"] ;
307 -> 323 ;
324 [label="fare <= 58.938\nentropy = 0.852\nsamples = 18\nvalue = [13, 5]", fillcolor="#efb185"] ;
168 -> 324 ;
325 [label="age <= 30.0\nentropy = 0.918\nsamples = 6\nvalue = [2, 4]", fillcolor="#9ccef2"] ;
324 -> 325 ;
326 [label="age <= 27.0\nentropy = 1.0\nsamples = 4\nvalue = [2, 2]", fillcolor="#ffffff"] ;
325 -> 326 ;
327 [label="entropy = 0.0\nsamples = 1\nvalue = [0, 1]", fillcolor="#399de5"] ;
326 -> 327 ;
328 [label="entropy = 0.918\nsamples = 3\nvalue = [2, 1]", fillcolor="#f2c09c"] ;
326 -> 328 ;
329 [label="entropy = 0.0\nsamples = 2\nvalue = [0, 2]", fillcolor="#399de5"] ;
325 -> 329 ;
330 [label="age <= 41.0\nentropy = 0.414\nsamples = 12\nvalue = [11, 1]", fillcolor="#e78c4b"] ;
324 -> 330 ;
331 [label="entropy = 0.0\nsamples = 10\nvalue = [10, 0]", fillcolor="#e58139"] ;
330 -> 331 ;
332 [label="embarked <= 1.0\nentropy = 1.0\nsamples = 2\nvalue = [1, 1]", fillcolor="#ffffff"] ;
330 -> 332 ;
333 [label="entropy = 0.0\nsamples = 1\nvalue = [1, 0]", fillcolor="#e58139"] ;
332 -> 333 ;
334 [label="entropy = 0.0\nsamples = 1\nvalue = [0, 1]", fillcolor="#399de5"] ;
332 -> 334 ;
}