digraph Tree {
node [shape=box, style="filled, rounded", color="black", fontname="helvetica"] ;
edge [fontname="helvetica"] ;
0 [label="adult_male <= 0.5\ngini = 0.469\nsamples = 712\nvalue = [444, 268]", fillcolor="#f5cdb1"] ;
1 [label="class <= 1.5\ngini = 0.411\nsamples = 280\nvalue = [81.0, 199.0]", fillcolor="#8ac5f0"] ;
0 -> 1 [labeldistance=2.5, labelangle=45, headlabel="True"] ;
2 [label="fare <= 149.035\ngini = 0.069\nsamples = 140\nvalue = [5, 135]", fillcolor="#40a1e6"] ;
1 -> 2 ;
3 [label="fare <= 29.356\ngini = 0.048\nsamples = 122\nvalue = [3, 119]", fillcolor="#3e9fe6"] ;
2 -> 3 ;
4 [label="fare <= 28.231\ngini = 0.094\nsamples = 61\nvalue = [3, 58]", fillcolor="#43a2e6"] ;
3 -> 4 ;
5 [label="age <= 27.5\ngini = 0.064\nsamples = 60\nvalue = [2, 58]", fillcolor="#40a0e6"] ;
4 -> 5 ;
6 [label="age <= 23.5\ngini = 0.142\nsamples = 26\nvalue = [2, 24]", fillcolor="#49a5e7"] ;
5 -> 6 ;
7 [label="gini = 0.0\nsamples = 16\nvalue = [0, 16]", fillcolor="#399de5"] ;
6 -> 7 ;
8 [label="parch <= 0.5\ngini = 0.32\nsamples = 10\nvalue = [2, 8]", fillcolor="#6ab6ec"] ;
6 -> 8 ;
9 [label="deck <= 6.0\ngini = 0.444\nsamples = 6\nvalue = [2, 4]", fillcolor="#9ccef2"] ;
8 -> 9 ;
10 [label="gini = 0.0\nsamples = 2\nvalue = [0, 2]", fillcolor="#399de5"] ;
9 -> 10 ;
11 [label="embark_town <= 1.0\ngini = 0.5\nsamples = 4\nvalue = [2, 2]", fillcolor="#ffffff"] ;
9 -> 11 ;
12 [label="gini = 0.0\nsamples = 1\nvalue = [0, 1]", fillcolor="#399de5"] ;
11 -> 12 ;
13 [label="fare <= 23.5\ngini = 0.444\nsamples = 3\nvalue = [2, 1]", fillcolor="#f2c09c"] ;
11 -> 13 ;
14 [label="gini = 0.0\nsamples = 2\nvalue = [2, 0]", fillcolor="#e58139"] ;
13 -> 14 ;
15 [label="gini = 0.0\nsamples = 1\nvalue = [0, 1]", fillcolor="#399de5"] ;
13 -> 15 ;
16 [label="gini = 0.0\nsamples = 4\nvalue = [0, 4]", fillcolor="#399de5"] ;
8 -> 16 ;
17 [label="gini = 0.0\nsamples = 34\nvalue = [0, 34]", fillcolor="#399de5"] ;
5 -> 17 ;
18 [label="gini = 0.0\nsamples = 1\nvalue = [1, 0]", fillcolor="#e58139"] ;
4 -> 18 ;
19 [label="gini = 0.0\nsamples = 61\nvalue = [0, 61]", fillcolor="#399de5"] ;
3 -> 19 ;
20 [label="fare <= 152.506\ngini = 0.198\nsamples = 18\nvalue = [2, 16]", fillcolor="#52a9e8"] ;
2 -> 20 ;
21 [label="sex <= 0.5\ngini = 0.5\nsamples = 4\nvalue = [2, 2]", fillcolor="#ffffff"] ;
20 -> 21 ;
22 [label="alone <= 0.5\ngini = 0.444\nsamples = 3\nvalue = [2, 1]", fillcolor="#f2c09c"] ;
21 -> 22 ;
23 [label="gini = 0.0\nsamples = 2\nvalue = [2, 0]", fillcolor="#e58139"] ;
22 -> 23 ;
24 [label="gini = 0.0\nsamples = 1\nvalue = [0, 1]", fillcolor="#399de5"] ;
22 -> 24 ;
25 [label="gini = 0.0\nsamples = 1\nvalue = [0, 1]", fillcolor="#399de5"] ;
21 -> 25 ;
26 [label="gini = 0.0\nsamples = 14\nvalue = [0, 14]", fillcolor="#399de5"] ;
20 -> 26 ;
27 [label="fare <= 23.35\ngini = 0.496\nsamples = 140\nvalue = [76, 64]", fillcolor="#fbebe0"] ;
1 -> 27 ;
28 [label="age <= 1.5\ngini = 0.482\nsamples = 104\nvalue = [42, 62]", fillcolor="#bfdff7"] ;
27 -> 28 ;
29 [label="gini = 0.0\nsamples = 6\nvalue = [0, 6]", fillcolor="#399de5"] ;
28 -> 29 ;
30 [label="fare <= 21.55\ngini = 0.49\nsamples = 98\nvalue = [42, 56]", fillcolor="#cee6f8"] ;
28 -> 30 ;
31 [label="fare <= 20.8\ngini = 0.494\nsamples = 94\nvalue = [42, 52]", fillcolor="#d9ecfa"] ;
30 -> 31 ;
32 [label="fare <= 15.373\ngini = 0.488\nsamples = 90\nvalue = [38.0, 52.0]", fillcolor="#cae5f8"] ;
31 -> 32 ;
33 [label="fare <= 13.908\ngini = 0.498\nsamples = 72\nvalue = [34, 38]", fillcolor="#eaf5fc"] ;
32 -> 33 ;
34 [label="fare <= 10.825\ngini = 0.488\nsamples = 64\nvalue = [27, 37]", fillcolor="#c9e5f8"] ;
33 -> 34 ;
35 [label="fare <= 8.04\ngini = 0.499\nsamples = 56\nvalue = [27.0, 29.0]", fillcolor="#f1f8fd"] ;
34 -> 35 ;
36 [label="alone <= 0.5\ngini = 0.45\nsamples = 38\nvalue = [13, 25]", fillcolor="#a0d0f3"] ;
35 -> 36 ;
37 [label="sibsp <= 2.5\ngini = 0.375\nsamples = 4\nvalue = [3, 1]", fillcolor="#eeab7b"] ;
36 -> 37 ;
38 [label="gini = 0.0\nsamples = 3\nvalue = [3, 0]", fillcolor="#e58139"] ;
37 -> 38 ;
39 [label="gini = 0.0\nsamples = 1\nvalue = [0, 1]", fillcolor="#399de5"] ;
37 -> 39 ;
40 [label="age <= 36.5\ngini = 0.415\nsamples = 34\nvalue = [10, 24]", fillcolor="#8bc6f0"] ;
36 -> 40 ;
41 [label="fare <= 6.987\ngini = 0.397\nsamples = 33\nvalue = [9, 24]", fillcolor="#83c2ef"] ;
40 -> 41 ;
42 [label="gini = 0.0\nsamples = 1\nvalue = [1, 0]", fillcolor="#e58139"] ;
41 -> 42 ;
43 [label="fare <= 7.59\ngini = 0.375\nsamples = 32\nvalue = [8, 24]", fillcolor="#7bbeee"] ;
41 -> 43 ;
44 [label="gini = 0.0\nsamples = 7\nvalue = [0, 7]", fillcolor="#399de5"] ;
43 -> 44 ;
45 [label="age <= 25.5\ngini = 0.435\nsamples = 25\nvalue = [8, 17]", fillcolor="#96cbf1"] ;
43 -> 45 ;
46 [label="age <= 22.5\ngini = 0.5\nsamples = 10\nvalue = [5, 5]", fillcolor="#ffffff"] ;
45 -> 46 ;
47 [label="age <= 14.5\ngini = 0.469\nsamples = 8\nvalue = [3, 5]", fillcolor="#b0d8f5"] ;
46 -> 47 ;
48 [label="gini = 0.0\nsamples = 1\nvalue = [1, 0]", fillcolor="#e58139"] ;
47 -> 48 ;
49 [label="fare <= 7.742\ngini = 0.408\nsamples = 7\nvalue = [2, 5]", fillcolor="#88c4ef"] ;
47 -> 49 ;
50 [label="gini = 0.0\nsamples = 2\nvalue = [0, 2]", fillcolor="#399de5"] ;
49 -> 50 ;
51 [label="age <= 21.5\ngini = 0.48\nsamples = 5\nvalue = [2, 3]", fillcolor="#bddef6"] ;
49 -> 51 ;
52 [label="age <= 16.5\ngini = 0.444\nsamples = 3\nvalue = [2, 1]", fillcolor="#f2c09c"] ;
51 -> 52 ;
53 [label="gini = 0.0\nsamples = 1\nvalue = [0, 1]", fillcolor="#399de5"] ;
52 -> 53 ;
54 [label="gini = 0.0\nsamples = 2\nvalue = [2, 0]", fillcolor="#e58139"] ;
52 -> 54 ;
55 [label="gini = 0.0\nsamples = 2\nvalue = [0, 2]", fillcolor="#399de5"] ;
51 -> 55 ;
56 [label="gini = 0.0\nsamples = 2\nvalue = [2, 0]", fillcolor="#e58139"] ;
46 -> 56 ;
57 [label="fare <= 7.681\ngini = 0.32\nsamples = 15\nvalue = [3, 12]", fillcolor="#6ab6ec"] ;
45 -> 57 ;
58 [label="gini = 0.0\nsamples = 1\nvalue = [1, 0]", fillcolor="#e58139"] ;
57 -> 58 ;
59 [label="fare <= 7.888\ngini = 0.245\nsamples = 14\nvalue = [2, 12]", fillcolor="#5aade9"] ;
57 -> 59 ;
60 [label="fare <= 7.802\ngini = 0.165\nsamples = 11\nvalue = [1, 10]", fillcolor="#4da7e8"] ;
59 -> 60 ;
61 [label="fare <= 7.744\ngini = 0.219\nsamples = 8\nvalue = [1, 7]", fillcolor="#55abe9"] ;
60 -> 61 ;
62 [label="gini = 0.0\nsamples = 2\nvalue = [0, 2]", fillcolor="#399de5"] ;
61 -> 62 ;
63 [label="gini = 0.278\nsamples = 6\nvalue = [1, 5]", fillcolor="#61b1ea"] ;
61 -> 63 ;
64 [label="gini = 0.0\nsamples = 3\nvalue = [0, 3]", fillcolor="#399de5"] ;
60 -> 64 ;
65 [label="age <= 27.5\ngini = 0.444\nsamples = 3\nvalue = [1, 2]", fillcolor="#9ccef2"] ;
59 -> 65 ;
66 [label="gini = 0.0\nsamples = 2\nvalue = [0, 2]", fillcolor="#399de5"] ;
65 -> 66 ;
67 [label="gini = 0.0\nsamples = 1\nvalue = [1, 0]", fillcolor="#e58139"] ;
65 -> 67 ;
68 [label="gini = 0.0\nsamples = 1\nvalue = [1, 0]", fillcolor="#e58139"] ;
40 -> 68 ;
69 [label="age <= 19.0\ngini = 0.346\nsamples = 18\nvalue = [14, 4]", fillcolor="#eca572"] ;
35 -> 69 ;
70 [label="who <= 1.0\ngini = 0.444\nsamples = 3\nvalue = [1, 2]", fillcolor="#9ccef2"] ;
69 -> 70 ;
71 [label="gini = 0.0\nsamples = 1\nvalue = [1, 0]", fillcolor="#e58139"] ;
70 -> 71 ;
72 [label="gini = 0.0\nsamples = 2\nvalue = [0, 2]", fillcolor="#399de5"] ;
70 -> 72 ;
73 [label="age <= 51.5\ngini = 0.231\nsamples = 15\nvalue = [13, 2]", fillcolor="#e99457"] ;
69 -> 73 ;
74 [label="age <= 30.5\ngini = 0.133\nsamples = 14\nvalue = [13, 1]", fillcolor="#e78b48"] ;
73 -> 74 ;
75 [label="gini = 0.0\nsamples = 11\nvalue = [11, 0]", fillcolor="#e58139"] ;
74 -> 75 ;
76 [label="fare <= 9.079\ngini = 0.444\nsamples = 3\nvalue = [2, 1]", fillcolor="#f2c09c"] ;
74 -> 76 ;
77 [label="gini = 0.0\nsamples = 1\nvalue = [0, 1]", fillcolor="#399de5"] ;
76 -> 77 ;
78 [label="gini = 0.0\nsamples = 2\nvalue = [2, 0]", fillcolor="#e58139"] ;
76 -> 78 ;
79 [label="gini = 0.0\nsamples = 1\nvalue = [0, 1]", fillcolor="#399de5"] ;
73 -> 79 ;
80 [label="gini = 0.0\nsamples = 8\nvalue = [0, 8]", fillcolor="#399de5"] ;
34 -> 80 ;
81 [label="age <= 28.5\ngini = 0.219\nsamples = 8\nvalue = [7, 1]", fillcolor="#e99355"] ;
33 -> 81 ;
82 [label="gini = 0.0\nsamples = 6\nvalue = [6, 0]", fillcolor="#e58139"] ;
81 -> 82 ;
83 [label="embarked <= 1.0\ngini = 0.5\nsamples = 2\nvalue = [1, 1]", fillcolor="#ffffff"] ;
81 -> 83 ;
84 [label="gini = 0.0\nsamples = 1\nvalue = [0, 1]", fillcolor="#399de5"] ;
83 -> 84 ;
85 [label="gini = 0.0\nsamples = 1\nvalue = [1, 0]", fillcolor="#e58139"] ;
83 -> 85 ;
86 [label="fare <= 17.7\ngini = 0.346\nsamples = 18\nvalue = [4, 14]", fillcolor="#72b9ec"] ;
32 -> 86 ;
87 [label="age <= 27.0\ngini = 0.153\nsamples = 12\nvalue = [1, 11]", fillcolor="#4ba6e7"] ;
86 -> 87 ;
88 [label="age <= 25.0\ngini = 0.32\nsamples = 5\nvalue = [1, 4]", fillcolor="#6ab6ec"] ;
87 -> 88 ;
89 [label="gini = 0.0\nsamples = 4\nvalue = [0, 4]", fillcolor="#399de5"] ;
88 -> 89 ;
90 [label="gini = 0.0\nsamples = 1\nvalue = [1, 0]", fillcolor="#e58139"] ;
88 -> 90 ;
91 [label="gini = 0.0\nsamples = 7\nvalue = [0, 7]", fillcolor="#399de5"] ;
87 -> 91 ;
92 [label="parch <= 0.5\ngini = 0.5\nsamples = 6\nvalue = [3, 3]", fillcolor="#ffffff"] ;
86 -> 92 ;
93 [label="gini = 0.0\nsamples = 3\nvalue = [3, 0]", fillcolor="#e58139"] ;
92 -> 93 ;
94 [label="gini = 0.0\nsamples = 3\nvalue = [0, 3]", fillcolor="#399de5"] ;
92 -> 94 ;
95 [label="gini = 0.0\nsamples = 4\nvalue = [4, 0]", fillcolor="#e58139"] ;
31 -> 95 ;
96 [label="gini = 0.0\nsamples = 4\nvalue = [0, 4]", fillcolor="#399de5"] ;
30 -> 96 ;
97 [label="age <= 5.5\ngini = 0.105\nsamples = 36\nvalue = [34, 2]", fillcolor="#e78845"] ;
27 -> 97 ;
98 [label="age <= 4.5\ngini = 0.32\nsamples = 10\nvalue = [8, 2]", fillcolor="#eca06a"] ;
97 -> 98 ;
99 [label="age <= 2.5\ngini = 0.198\nsamples = 9\nvalue = [8, 1]", fillcolor="#e89152"] ;
98 -> 99 ;
100 [label="gini = 0.0\nsamples = 6\nvalue = [6, 0]", fillcolor="#e58139"] ;
99 -> 100 ;
101 [label="age <= 3.5\ngini = 0.444\nsamples = 3\nvalue = [2, 1]", fillcolor="#f2c09c"] ;
99 -> 101 ;
102 [label="gini = 0.0\nsamples = 1\nvalue = [0, 1]", fillcolor="#399de5"] ;
101 -> 102 ;
103 [label="gini = 0.0\nsamples = 2\nvalue = [2, 0]", fillcolor="#e58139"] ;
101 -> 103 ;
104 [label="gini = 0.0\nsamples = 1\nvalue = [0, 1]", fillcolor="#399de5"] ;
98 -> 104 ;
105 [label="gini = 0.0\nsamples = 26\nvalue = [26, 0]", fillcolor="#e58139"] ;
97 -> 105 ;
106 [label="deck <= 4.5\ngini = 0.268\nsamples = 432\nvalue = [363, 69]", fillcolor="#ea995f"] ;
0 -> 106 [labeldistance=2.5, labelangle=-45, headlabel="False"] ;
107 [label="fare <= 387.665\ngini = 0.477\nsamples = 74\nvalue = [45, 29]", fillcolor="#f6d2b9"] ;
106 -> 107 ;
108 [label="class <= 0.5\ngini = 0.469\nsamples = 72\nvalue = [45, 27]", fillcolor="#f5cdb0"] ;
107 -> 108 ;
109 [label="fare <= 26.144\ngini = 0.459\nsamples = 70\nvalue = [45, 25]", fillcolor="#f3c7a7"] ;
108 -> 109 ;
110 [label="gini = 0.0\nsamples = 6\nvalue = [6, 0]", fillcolor="#e58139"] ;
109 -> 110 ;
111 [label="fare <= 136.731\ngini = 0.476\nsamples = 64\nvalue = [39, 25]", fillcolor="#f6d2b8"] ;
109 -> 111 ;
112 [label="age <= 43.0\ngini = 0.488\nsamples = 59\nvalue = [34, 25]", fillcolor="#f8decb"] ;
111 -> 112 ;
113 [label="deck <= 0.5\ngini = 0.498\nsamples = 32\nvalue = [15, 17]", fillcolor="#e8f3fc"] ;
112 -> 113 ;
114 [label="gini = 0.0\nsamples = 4\nvalue = [4, 0]", fillcolor="#e58139"] ;
113 -> 114 ;
115 [label="deck <= 3.5\ngini = 0.477\nsamples = 28\nvalue = [11, 17]", fillcolor="#b9dcf6"] ;
113 -> 115 ;
116 [label="fare <= 109.892\ngini = 0.497\nsamples = 24\nvalue = [11, 13]", fillcolor="#e1f0fb"] ;
115 -> 116 ;
117 [label="age <= 23.0\ngini = 0.5\nsamples = 22\nvalue = [11, 11]", fillcolor="#ffffff"] ;
116 -> 117 ;
118 [label="gini = 0.0\nsamples = 3\nvalue = [3, 0]", fillcolor="#e58139"] ;
117 -> 118 ;
119 [label="age <= 28.5\ngini = 0.488\nsamples = 19\nvalue = [8, 11]", fillcolor="#c9e4f8"] ;
117 -> 119 ;
120 [label="embark_town <= 1.0\ngini = 0.346\nsamples = 9\nvalue = [2, 7]", fillcolor="#72b9ec"] ;
119 -> 120 ;
121 [label="gini = 0.0\nsamples = 3\nvalue = [0, 3]", fillcolor="#399de5"] ;
120 -> 121 ;
122 [label="deck <= 2.5\ngini = 0.444\nsamples = 6\nvalue = [2, 4]", fillcolor="#9ccef2"] ;
120 -> 122 ;
123 [label="fare <= 35.25\ngini = 0.48\nsamples = 5\nvalue = [2, 3]", fillcolor="#bddef6"] ;
122 -> 123 ;
124 [label="fare <= 32.75\ngini = 0.5\nsamples = 4\nvalue = [2, 2]", fillcolor="#ffffff"] ;
123 -> 124 ;
125 [label="fare <= 28.525\ngini = 0.444\nsamples = 3\nvalue = [1, 2]", fillcolor="#9ccef2"] ;
124 -> 125 ;
126 [label="gini = 0.5\nsamples = 2\nvalue = [1, 1]", fillcolor="#ffffff"] ;
125 -> 126 ;
127 [label="gini = 0.0\nsamples = 1\nvalue = [0, 1]", fillcolor="#399de5"] ;
125 -> 127 ;
128 [label="gini = 0.0\nsamples = 1\nvalue = [1, 0]", fillcolor="#e58139"] ;
124 -> 128 ;
129 [label="gini = 0.0\nsamples = 1\nvalue = [0, 1]", fillcolor="#399de5"] ;
123 -> 129 ;
130 [label="gini = 0.0\nsamples = 1\nvalue = [0, 1]", fillcolor="#399de5"] ;
122 -> 130 ;
131 [label="age <= 30.5\ngini = 0.48\nsamples = 10\nvalue = [6, 4]", fillcolor="#f6d5bd"] ;
119 -> 131 ;
132 [label="gini = 0.0\nsamples = 3\nvalue = [3, 0]", fillcolor="#e58139"] ;
131 -> 132 ;
133 [label="fare <= 30.1\ngini = 0.49\nsamples = 7\nvalue = [3, 4]", fillcolor="#cee6f8"] ;
131 -> 133 ;
134 [label="gini = 0.0\nsamples = 1\nvalue = [1, 0]", fillcolor="#e58139"] ;
133 -> 134 ;
135 [label="age <= 36.5\ngini = 0.444\nsamples = 6\nvalue = [2, 4]", fillcolor="#9ccef2"] ;
133 -> 135 ;
136 [label="alone <= 0.5\ngini = 0.5\nsamples = 4\nvalue = [2, 2]", fillcolor="#ffffff"] ;
135 -> 136 ;
137 [label="age <= 33.5\ngini = 0.444\nsamples = 3\nvalue = [2, 1]", fillcolor="#f2c09c"] ;
136 -> 137 ;
138 [label="fare <= 54.5\ngini = 0.5\nsamples = 2\nvalue = [1, 1]", fillcolor="#ffffff"] ;
137 -> 138 ;
139 [label="gini = 0.0\nsamples = 1\nvalue = [1, 0]", fillcolor="#e58139"] ;
138 -> 139 ;
140 [label="gini = 0.0\nsamples = 1\nvalue = [0, 1]", fillcolor="#399de5"] ;
138 -> 140 ;
141 [label="gini = 0.0\nsamples = 1\nvalue = [1, 0]", fillcolor="#e58139"] ;
137 -> 141 ;
142 [label="gini = 0.0\nsamples = 1\nvalue = [0, 1]", fillcolor="#399de5"] ;
136 -> 142 ;
143 [label="gini = 0.0\nsamples = 2\nvalue = [0, 2]", fillcolor="#399de5"] ;
135 -> 143 ;
144 [label="gini = 0.0\nsamples = 2\nvalue = [0, 2]", fillcolor="#399de5"] ;
116 -> 144 ;
145 [label="gini = 0.0\nsamples = 4\nvalue = [0, 4]", fillcolor="#399de5"] ;
115 -> 145 ;
146 [label="deck <= 0.5\ngini = 0.417\nsamples = 27\nvalue = [19, 8]", fillcolor="#f0b68c"] ;
112 -> 146 ;
147 [label="gini = 0.0\nsamples = 2\nvalue = [0, 2]", fillcolor="#399de5"] ;
146 -> 147 ;
148 [label="age <= 47.5\ngini = 0.365\nsamples = 25\nvalue = [19, 6]", fillcolor="#eda978"] ;
146 -> 148 ;
149 [label="gini = 0.0\nsamples = 7\nvalue = [7, 0]", fillcolor="#e58139"] ;
148 -> 149 ;
150 [label="age <= 48.5\ngini = 0.444\nsamples = 18\nvalue = [12, 6]", fillcolor="#f2c09c"] ;
148 -> 150 ;
151 [label="gini = 0.0\nsamples = 2\nvalue = [0, 2]", fillcolor="#399de5"] ;
150 -> 151 ;
152 [label="age <= 53.0\ngini = 0.375\nsamples = 16\nvalue = [12, 4]", fillcolor="#eeab7b"] ;
150 -> 152 ;
153 [label="sibsp <= 0.5\ngini = 0.49\nsamples = 7\nvalue = [4, 3]", fillcolor="#f8e0ce"] ;
152 -> 153 ;
154 [label="gini = 0.0\nsamples = 2\nvalue = [0, 2]", fillcolor="#399de5"] ;
153 -> 154 ;
155 [label="age <= 49.5\ngini = 0.32\nsamples = 5\nvalue = [4, 1]", fillcolor="#eca06a"] ;
153 -> 155 ;
156 [label="parch <= 0.5\ngini = 0.5\nsamples = 2\nvalue = [1, 1]", fillcolor="#ffffff"] ;
155 -> 156 ;
157 [label="gini = 0.0\nsamples = 1\nvalue = [0, 1]", fillcolor="#399de5"] ;
156 -> 157 ;
158 [label="gini = 0.0\nsamples = 1\nvalue = [1, 0]", fillcolor="#e58139"] ;
156 -> 158 ;
159 [label="gini = 0.0\nsamples = 3\nvalue = [3, 0]", fillcolor="#e58139"] ;
155 -> 159 ;
160 [label="fare <= 78.244\ngini = 0.198\nsamples = 9\nvalue = [8, 1]", fillcolor="#e89152"] ;
152 -> 160 ;
161 [label="gini = 0.0\nsamples = 8\nvalue = [8, 0]", fillcolor="#e58139"] ;
160 -> 161 ;
162 [label="gini = 0.0\nsamples = 1\nvalue = [0, 1]", fillcolor="#399de5"] ;
160 -> 162 ;
163 [label="gini = 0.0\nsamples = 5\nvalue = [5, 0]", fillcolor="#e58139"] ;
111 -> 163 ;
164 [label="gini = 0.0\nsamples = 2\nvalue = [0, 2]", fillcolor="#399de5"] ;
108 -> 164 ;
165 [label="gini = 0.0\nsamples = 2\nvalue = [0, 2]", fillcolor="#399de5"] ;
107 -> 165 ;
166 [label="fare <= 54.248\ngini = 0.198\nsamples = 358\nvalue = [318, 40]", fillcolor="#e89152"] ;
106 -> 166 ;
167 [label="age <= 32.25\ngini = 0.185\nsamples = 340\nvalue = [305, 35]", fillcolor="#e88f50"] ;
166 -> 167 ;
168 [label="age <= 31.5\ngini = 0.215\nsamples = 245\nvalue = [215, 30]", fillcolor="#e99355"] ;
167 -> 168 ;
169 [label="embark_town <= 0.5\ngini = 0.203\nsamples = 236\nvalue = [209, 27]", fillcolor="#e89153"] ;
168 -> 169 ;
170 [label="age <= 22.5\ngini = 0.32\nsamples = 35\nvalue = [28, 7]", fillcolor="#eca06a"] ;
169 -> 170 ;
171 [label="fare <= 5.619\ngini = 0.48\nsamples = 5\nvalue = [2, 3]", fillcolor="#bddef6"] ;
170 -> 171 ;
172 [label="gini = 0.0\nsamples = 1\nvalue = [1, 0]", fillcolor="#e58139"] ;
171 -> 172 ;
173 [label="age <= 21.0\ngini = 0.375\nsamples = 4\nvalue = [1, 3]", fillcolor="#7bbeee"] ;
171 -> 173 ;
174 [label="gini = 0.0\nsamples = 2\nvalue = [0, 2]", fillcolor="#399de5"] ;
173 -> 174 ;
175 [label="fare <= 7.227\ngini = 0.5\nsamples = 2\nvalue = [1, 1]", fillcolor="#ffffff"] ;
173 -> 175 ;
176 [label="gini = 0.0\nsamples = 1\nvalue = [0, 1]", fillcolor="#399de5"] ;
175 -> 176 ;
177 [label="gini = 0.0\nsamples = 1\nvalue = [1, 0]", fillcolor="#e58139"] ;
175 -> 177 ;
178 [label="fare <= 20.233\ngini = 0.231\nsamples = 30\nvalue = [26, 4]", fillcolor="#e99457"] ;
170 -> 178 ;
179 [label="fare <= 16.919\ngini = 0.298\nsamples = 22\nvalue = [18, 4]", fillcolor="#eb9d65"] ;
178 -> 179 ;
180 [label="age <= 28.75\ngini = 0.245\nsamples = 21\nvalue = [18, 3]", fillcolor="#e9965a"] ;
179 -> 180 ;
181 [label="pclass <= 2.5\ngini = 0.188\nsamples = 19\nvalue = [17, 2]", fillcolor="#e89050"] ;
180 -> 181 ;
182 [label="fare <= 14.454\ngini = 0.444\nsamples = 3\nvalue = [2, 1]", fillcolor="#f2c09c"] ;
181 -> 182 ;
183 [label="gini = 0.0\nsamples = 1\nvalue = [0, 1]", fillcolor="#399de5"] ;
182 -> 183 ;
184 [label="gini = 0.0\nsamples = 2\nvalue = [2, 0]", fillcolor="#e58139"] ;
182 -> 184 ;
185 [label="fare <= 7.227\ngini = 0.117\nsamples = 16\nvalue = [15, 1]", fillcolor="#e78946"] ;
181 -> 185 ;
186 [label="gini = 0.0\nsamples = 5\nvalue = [5, 0]", fillcolor="#e58139"] ;
185 -> 186 ;
187 [label="fare <= 7.562\ngini = 0.165\nsamples = 11\nvalue = [10, 1]", fillcolor="#e88e4d"] ;
185 -> 187 ;
188 [label="age <= 28.25\ngini = 0.245\nsamples = 7\nvalue = [6, 1]", fillcolor="#e9965a"] ;
187 -> 188 ;
189 [label="gini = 0.278\nsamples = 6\nvalue = [5, 1]", fillcolor="#ea9a61"] ;
188 -> 189 ;
190 [label="gini = 0.0\nsamples = 1\nvalue = [1, 0]", fillcolor="#e58139"] ;
188 -> 190 ;
191 [label="gini = 0.0\nsamples = 4\nvalue = [4, 0]", fillcolor="#e58139"] ;
187 -> 191 ;
192 [label="fare <= 7.562\ngini = 0.5\nsamples = 2\nvalue = [1, 1]", fillcolor="#ffffff"] ;
180 -> 192 ;
193 [label="gini = 0.0\nsamples = 1\nvalue = [1, 0]", fillcolor="#e58139"] ;
192 -> 193 ;
194 [label="gini = 0.0\nsamples = 1\nvalue = [0, 1]", fillcolor="#399de5"] ;
192 -> 194 ;
195 [label="gini = 0.0\nsamples = 1\nvalue = [0, 1]", fillcolor="#399de5"] ;
179 -> 195 ;
196 [label="gini = 0.0\nsamples = 8\nvalue = [8, 0]", fillcolor="#e58139"] ;
178 -> 196 ;
197 [label="fare <= 7.798\ngini = 0.179\nsamples = 201\nvalue = [181, 20]", fillcolor="#e88f4f"] ;
169 -> 197 ;
198 [label="fare <= 7.763\ngini = 0.255\nsamples = 60\nvalue = [51, 9]", fillcolor="#ea975c"] ;
197 -> 198 ;
199 [label="age <= 23.0\ngini = 0.19\nsamples = 47\nvalue = [42, 5]", fillcolor="#e89051"] ;
198 -> 199 ;
200 [label="gini = 0.0\nsamples = 14\nvalue = [14, 0]", fillcolor="#e58139"] ;
199 -> 200 ;
201 [label="age <= 24.5\ngini = 0.257\nsamples = 33\nvalue = [28, 5]", fillcolor="#ea985c"] ;
199 -> 201 ;
202 [label="gini = 0.0\nsamples = 1\nvalue = [0, 1]", fillcolor="#399de5"] ;
201 -> 202 ;
203 [label="age <= 27.5\ngini = 0.219\nsamples = 32\nvalue = [28, 4]", fillcolor="#e99355"] ;
201 -> 203 ;
204 [label="fare <= 7.013\ngini = 0.444\nsamples = 6\nvalue = [4, 2]", fillcolor="#f2c09c"] ;
203 -> 204 ;
205 [label="gini = 0.0\nsamples = 2\nvalue = [0, 2]", fillcolor="#399de5"] ;
204 -> 205 ;
206 [label="gini = 0.0\nsamples = 4\nvalue = [4, 0]", fillcolor="#e58139"] ;
204 -> 206 ;
207 [label="age <= 28.5\ngini = 0.142\nsamples = 26\nvalue = [24, 2]", fillcolor="#e78c49"] ;
203 -> 207 ;
208 [label="fare <= 7.742\ngini = 0.083\nsamples = 23\nvalue = [22, 1]", fillcolor="#e68742"] ;
207 -> 208 ;
209 [label="gini = 0.0\nsamples = 14\nvalue = [14, 0]", fillcolor="#e58139"] ;
208 -> 209 ;
210 [label="deck <= 6.0\ngini = 0.198\nsamples = 9\nvalue = [8, 1]", fillcolor="#e89152"] ;
208 -> 210 ;
211 [label="gini = 0.0\nsamples = 1\nvalue = [1, 0]", fillcolor="#e58139"] ;
210 -> 211 ;
212 [label="alone <= 0.5\ngini = 0.219\nsamples = 8\nvalue = [7, 1]", fillcolor="#e99355"] ;
210 -> 212 ;
213 [label="gini = 0.0\nsamples = 1\nvalue = [1, 0]", fillcolor="#e58139"] ;
212 -> 213 ;
214 [label="gini = 0.245\nsamples = 7\nvalue = [6, 1]", fillcolor="#e9965a"] ;
212 -> 214 ;
215 [label="age <= 29.5\ngini = 0.444\nsamples = 3\nvalue = [2, 1]", fillcolor="#f2c09c"] ;
207 -> 215 ;
216 [label="gini = 0.0\nsamples = 1\nvalue = [0, 1]", fillcolor="#399de5"] ;
215 -> 216 ;
217 [label="gini = 0.0\nsamples = 2\nvalue = [2, 0]", fillcolor="#e58139"] ;
215 -> 217 ;
218 [label="alone <= 0.5\ngini = 0.426\nsamples = 13\nvalue = [9, 4]", fillcolor="#f1b991"] ;
198 -> 218 ;
219 [label="gini = 0.0\nsamples = 1\nvalue = [0, 1]", fillcolor="#399de5"] ;
218 -> 219 ;
220 [label="age <= 20.0\ngini = 0.375\nsamples = 12\nvalue = [9, 3]", fillcolor="#eeab7b"] ;
218 -> 220 ;
221 [label="gini = 0.0\nsamples = 3\nvalue = [3, 0]", fillcolor="#e58139"] ;
220 -> 221 ;
222 [label="age <= 21.5\ngini = 0.444\nsamples = 9\nvalue = [6, 3]", fillcolor="#f2c09c"] ;
220 -> 222 ;
223 [label="gini = 0.0\nsamples = 1\nvalue = [0, 1]", fillcolor="#399de5"] ;
222 -> 223 ;
224 [label="age <= 26.5\ngini = 0.375\nsamples = 8\nvalue = [6, 2]", fillcolor="#eeab7b"] ;
222 -> 224 ;
225 [label="gini = 0.0\nsamples = 3\nvalue = [3, 0]", fillcolor="#e58139"] ;
224 -> 225 ;
226 [label="age <= 27.5\ngini = 0.48\nsamples = 5\nvalue = [3, 2]", fillcolor="#f6d5bd"] ;
224 -> 226 ;
227 [label="gini = 0.0\nsamples = 1\nvalue = [0, 1]", fillcolor="#399de5"] ;
226 -> 227 ;
228 [label="age <= 29.5\ngini = 0.375\nsamples = 4\nvalue = [3, 1]", fillcolor="#eeab7b"] ;
226 -> 228 ;
229 [label="fare <= 7.785\ngini = 0.444\nsamples = 3\nvalue = [2, 1]", fillcolor="#f2c09c"] ;
228 -> 229 ;
230 [label="gini = 0.5\nsamples = 2\nvalue = [1, 1]", fillcolor="#ffffff"] ;
229 -> 230 ;
231 [label="gini = 0.0\nsamples = 1\nvalue = [1, 0]", fillcolor="#e58139"] ;
229 -> 231 ;
232 [label="gini = 0.0\nsamples = 1\nvalue = [1, 0]", fillcolor="#e58139"] ;
228 -> 232 ;
233 [label="age <= 30.5\ngini = 0.144\nsamples = 141\nvalue = [130, 11]", fillcolor="#e78c4a"] ;
197 -> 233 ;
234 [label="fare <= 7.91\ngini = 0.134\nsamples = 139\nvalue = [129, 10]", fillcolor="#e78b48"] ;
233 -> 234 ;
235 [label="gini = 0.0\nsamples = 29\nvalue = [29, 0]", fillcolor="#e58139"] ;
234 -> 235 ;
236 [label="age <= 20.5\ngini = 0.165\nsamples = 110\nvalue = [100, 10]", fillcolor="#e88e4d"] ;
234 -> 236 ;
237 [label="fare <= 8.175\ngini = 0.252\nsamples = 27\nvalue = [23, 4]", fillcolor="#ea975b"] ;
236 -> 237 ;
238 [label="alone <= 0.5\ngini = 0.5\nsamples = 6\nvalue = [3, 3]", fillcolor="#ffffff"] ;
237 -> 238 ;
239 [label="gini = 0.0\nsamples = 1\nvalue = [0, 1]", fillcolor="#399de5"] ;
238 -> 239 ;
240 [label="age <= 19.5\ngini = 0.48\nsamples = 5\nvalue = [3, 2]", fillcolor="#f6d5bd"] ;
238 -> 240 ;
241 [label="age <= 17.5\ngini = 0.5\nsamples = 4\nvalue = [2, 2]", fillcolor="#ffffff"] ;
240 -> 241 ;
242 [label="gini = 0.5\nsamples = 2\nvalue = [1, 1]", fillcolor="#ffffff"] ;
241 -> 242 ;
243 [label="gini = 0.5\nsamples = 2\nvalue = [1, 1]", fillcolor="#ffffff"] ;
241 -> 243 ;
244 [label="gini = 0.0\nsamples = 1\nvalue = [1, 0]", fillcolor="#e58139"] ;
240 -> 244 ;
245 [label="age <= 18.5\ngini = 0.091\nsamples = 21\nvalue = [20, 1]", fillcolor="#e68743"] ;
237 -> 245 ;
246 [label="gini = 0.0\nsamples = 13\nvalue = [13, 0]", fillcolor="#e58139"] ;
245 -> 246 ;
247 [label="pclass <= 2.5\ngini = 0.219\nsamples = 8\nvalue = [7, 1]", fillcolor="#e99355"] ;
245 -> 247 ;
248 [label="fare <= 11.75\ngini = 0.375\nsamples = 4\nvalue = [3, 1]", fillcolor="#eeab7b"] ;
247 -> 248 ;
249 [label="gini = 0.5\nsamples = 2\nvalue = [1, 1]", fillcolor="#ffffff"] ;
248 -> 249 ;
250 [label="gini = 0.0\nsamples = 2\nvalue = [2, 0]", fillcolor="#e58139"] ;
248 -> 250 ;
251 [label="gini = 0.0\nsamples = 4\nvalue = [4, 0]", fillcolor="#e58139"] ;
247 -> 251 ;
252 [label="age <= 26.5\ngini = 0.134\nsamples = 83\nvalue = [77, 6]", fillcolor="#e78b48"] ;
236 -> 252 ;
253 [label="gini = 0.0\nsamples = 29\nvalue = [29, 0]", fillcolor="#e58139"] ;
252 -> 253 ;
254 [label="age <= 27.5\ngini = 0.198\nsamples = 54\nvalue = [48, 6]", fillcolor="#e89152"] ;
252 -> 254 ;
255 [label="pclass <= 1.5\ngini = 0.5\nsamples = 4\nvalue = [2, 2]", fillcolor="#ffffff"] ;
254 -> 255 ;
256 [label="gini = 0.0\nsamples = 1\nvalue = [0, 1]", fillcolor="#399de5"] ;
255 -> 256 ;
257 [label="fare <= 10.831\ngini = 0.444\nsamples = 3\nvalue = [2, 1]", fillcolor="#f2c09c"] ;
255 -> 257 ;
258 [label="gini = 0.0\nsamples = 1\nvalue = [0, 1]", fillcolor="#399de5"] ;
257 -> 258 ;
259 [label="gini = 0.0\nsamples = 2\nvalue = [2, 0]", fillcolor="#e58139"] ;
257 -> 259 ;
260 [label="sibsp <= 1.5\ngini = 0.147\nsamples = 50\nvalue = [46, 4]", fillcolor="#e78c4a"] ;
254 -> 260 ;
261 [label="fare <= 13.25\ngini = 0.12\nsamples = 47\nvalue = [44.0, 3.0]", fillcolor="#e78a46"] ;
260 -> 261 ;
262 [label="fare <= 8.081\ngini = 0.204\nsamples = 26\nvalue = [23, 3]", fillcolor="#e89153"] ;
261 -> 262 ;
263 [label="gini = 0.0\nsamples = 13\nvalue = [13, 0]", fillcolor="#e58139"] ;
262 -> 263 ;
264 [label="fare <= 8.388\ngini = 0.355\nsamples = 13\nvalue = [10, 3]", fillcolor="#eda774"] ;
262 -> 264 ;
265 [label="gini = 0.0\nsamples = 1\nvalue = [0, 1]", fillcolor="#399de5"] ;
264 -> 265 ;
266 [label="fare <= 11.75\ngini = 0.278\nsamples = 12\nvalue = [10, 2]", fillcolor="#ea9a61"] ;
264 -> 266 ;
267 [label="age <= 28.5\ngini = 0.198\nsamples = 9\nvalue = [8, 1]", fillcolor="#e89152"] ;
266 -> 267 ;
268 [label="gini = 0.0\nsamples = 5\nvalue = [5, 0]", fillcolor="#e58139"] ;
267 -> 268 ;
269 [label="pclass <= 2.5\ngini = 0.375\nsamples = 4\nvalue = [3, 1]", fillcolor="#eeab7b"] ;
267 -> 269 ;
270 [label="gini = 0.0\nsamples = 2\nvalue = [2, 0]", fillcolor="#e58139"] ;
269 -> 270 ;
271 [label="fare <= 9.492\ngini = 0.5\nsamples = 2\nvalue = [1, 1]", fillcolor="#ffffff"] ;
269 -> 271 ;
272 [label="gini = 0.0\nsamples = 1\nvalue = [1, 0]", fillcolor="#e58139"] ;
271 -> 272 ;
273 [label="gini = 0.0\nsamples = 1\nvalue = [0, 1]", fillcolor="#399de5"] ;
271 -> 273 ;
274 [label="age <= 29.0\ngini = 0.444\nsamples = 3\nvalue = [2, 1]", fillcolor="#f2c09c"] ;
266 -> 274 ;
275 [label="gini = 0.0\nsamples = 1\nvalue = [0, 1]", fillcolor="#399de5"] ;
274 -> 275 ;
276 [label="gini = 0.0\nsamples = 2\nvalue = [2, 0]", fillcolor="#e58139"] ;
274 -> 276 ;
277 [label="gini = 0.0\nsamples = 21\nvalue = [21, 0]", fillcolor="#e58139"] ;
261 -> 277 ;
278 [label="embarked <= 1.5\ngini = 0.444\nsamples = 3\nvalue = [2, 1]", fillcolor="#f2c09c"] ;
260 -> 278 ;
279 [label="gini = 0.0\nsamples = 1\nvalue = [0, 1]", fillcolor="#399de5"] ;
278 -> 279 ;
280 [label="gini = 0.0\nsamples = 2\nvalue = [2, 0]", fillcolor="#e58139"] ;
278 -> 280 ;
281 [label="parch <= 0.5\ngini = 0.5\nsamples = 2\nvalue = [1, 1]", fillcolor="#ffffff"] ;
233 -> 281 ;
282 [label="gini = 0.0\nsamples = 1\nvalue = [0, 1]", fillcolor="#399de5"] ;
281 -> 282 ;
283 [label="gini = 0.0\nsamples = 1\nvalue = [1, 0]", fillcolor="#e58139"] ;
281 -> 283 ;
284 [label="pclass <= 2.5\ngini = 0.444\nsamples = 9\nvalue = [6, 3]", fillcolor="#f2c09c"] ;
168 -> 284 ;
285 [label="gini = 0.0\nsamples = 1\nvalue = [0, 1]", fillcolor="#399de5"] ;
284 -> 285 ;
286 [label="fare <= 8.144\ngini = 0.375\nsamples = 8\nvalue = [6, 2]", fillcolor="#eeab7b"] ;
284 -> 286 ;
287 [label="embarked <= 1.5\ngini = 0.444\nsamples = 6\nvalue = [4, 2]", fillcolor="#f2c09c"] ;
286 -> 287 ;
288 [label="gini = 0.0\nsamples = 1\nvalue = [1, 0]", fillcolor="#e58139"] ;
287 -> 288 ;
289 [label="fare <= 7.875\ngini = 0.48\nsamples = 5\nvalue = [3, 2]", fillcolor="#f6d5bd"] ;
287 -> 289 ;
290 [label="gini = 0.0\nsamples = 1\nvalue = [0, 1]", fillcolor="#399de5"] ;
289 -> 290 ;
291 [label="fare <= 7.91\ngini = 0.375\nsamples = 4\nvalue = [3, 1]", fillcolor="#eeab7b"] ;
289 -> 291 ;
292 [label="gini = 0.0\nsamples = 1\nvalue = [1, 0]", fillcolor="#e58139"] ;
291 -> 292 ;
293 [label="gini = 0.444\nsamples = 3\nvalue = [2, 1]", fillcolor="#f2c09c"] ;
291 -> 293 ;
294 [label="gini = 0.0\nsamples = 2\nvalue = [2, 0]", fillcolor="#e58139"] ;
286 -> 294 ;
295 [label="age <= 38.5\ngini = 0.1\nsamples = 95\nvalue = [90, 5]", fillcolor="#e68844"] ;
167 -> 295 ;
296 [label="gini = 0.0\nsamples = 34\nvalue = [34, 0]", fillcolor="#e58139"] ;
295 -> 296 ;
297 [label="age <= 45.25\ngini = 0.15\nsamples = 61\nvalue = [56, 5]", fillcolor="#e78c4b"] ;
295 -> 297 ;
298 [label="alone <= 0.5\ngini = 0.238\nsamples = 29\nvalue = [25, 4]", fillcolor="#e99559"] ;
297 -> 298 ;
299 [label="gini = 0.0\nsamples = 10\nvalue = [10, 0]", fillcolor="#e58139"] ;
298 -> 299 ;
300 [label="fare <= 7.91\ngini = 0.332\nsamples = 19\nvalue = [15, 4]", fillcolor="#eca36e"] ;
298 -> 300 ;
301 [label="gini = 0.0\nsamples = 7\nvalue = [7, 0]", fillcolor="#e58139"] ;
300 -> 301 ;
302 [label="fare <= 7.988\ngini = 0.444\nsamples = 12\nvalue = [8, 4]", fillcolor="#f2c09c"] ;
300 -> 302 ;
303 [label="age <= 41.5\ngini = 0.444\nsamples = 3\nvalue = [1, 2]", fillcolor="#9ccef2"] ;
302 -> 303 ;
304 [label="gini = 0.5\nsamples = 2\nvalue = [1, 1]", fillcolor="#ffffff"] ;
303 -> 304 ;
305 [label="gini = 0.0\nsamples = 1\nvalue = [0, 1]", fillcolor="#399de5"] ;
303 -> 305 ;
306 [label="pclass <= 2.5\ngini = 0.346\nsamples = 9\nvalue = [7, 2]", fillcolor="#eca572"] ;
302 -> 306 ;
307 [label="age <= 40.5\ngini = 0.444\nsamples = 6\nvalue = [4, 2]", fillcolor="#f2c09c"] ;
306 -> 307 ;
308 [label="gini = 0.0\nsamples = 2\nvalue = [2, 0]", fillcolor="#e58139"] ;
307 -> 308 ;
309 [label="fare <= 31.025\ngini = 0.5\nsamples = 4\nvalue = [2, 2]", fillcolor="#ffffff"] ;
307 -> 309 ;
310 [label="age <= 43.5\ngini = 0.444\nsamples = 3\nvalue = [1, 2]", fillcolor="#9ccef2"] ;
309 -> 310 ;
311 [label="gini = 0.5\nsamples = 2\nvalue = [1, 1]", fillcolor="#ffffff"] ;
310 -> 311 ;
312 [label="gini = 0.0\nsamples = 1\nvalue = [0, 1]", fillcolor="#399de5"] ;
310 -> 312 ;
313 [label="gini = 0.0\nsamples = 1\nvalue = [1, 0]", fillcolor="#e58139"] ;
309 -> 313 ;
314 [label="gini = 0.0\nsamples = 3\nvalue = [3, 0]", fillcolor="#e58139"] ;
306 -> 314 ;
315 [label="age <= 61.5\ngini = 0.061\nsamples = 32\nvalue = [31, 1]", fillcolor="#e6853f"] ;
297 -> 315 ;
316 [label="gini = 0.0\nsamples = 27\nvalue = [27, 0]", fillcolor="#e58139"] ;
315 -> 316 ;
317 [label="age <= 66.0\ngini = 0.32\nsamples = 5\nvalue = [4, 1]", fillcolor="#eca06a"] ;
315 -> 317 ;
318 [label="class <= 0.5\ngini = 0.5\nsamples = 2\nvalue = [1, 1]", fillcolor="#ffffff"] ;
317 -> 318 ;
319 [label="gini = 0.0\nsamples = 1\nvalue = [1, 0]", fillcolor="#e58139"] ;
318 -> 319 ;
320 [label="gini = 0.0\nsamples = 1\nvalue = [0, 1]", fillcolor="#399de5"] ;
318 -> 320 ;
321 [label="gini = 0.0\nsamples = 3\nvalue = [3, 0]", fillcolor="#e58139"] ;
317 -> 321 ;
322 [label="fare <= 58.938\ngini = 0.401\nsamples = 18\nvalue = [13, 5]", fillcolor="#efb185"] ;
166 -> 322 ;
323 [label="age <= 30.0\ngini = 0.444\nsamples = 6\nvalue = [2, 4]", fillcolor="#9ccef2"] ;
322 -> 323 ;
324 [label="age <= 27.0\ngini = 0.5\nsamples = 4\nvalue = [2, 2]", fillcolor="#ffffff"] ;
323 -> 324 ;
325 [label="gini = 0.0\nsamples = 1\nvalue = [0, 1]", fillcolor="#399de5"] ;
324 -> 325 ;
326 [label="gini = 0.444\nsamples = 3\nvalue = [2, 1]", fillcolor="#f2c09c"] ;
324 -> 326 ;
327 [label="gini = 0.0\nsamples = 2\nvalue = [0, 2]", fillcolor="#399de5"] ;
323 -> 327 ;
328 [label="age <= 41.0\ngini = 0.153\nsamples = 12\nvalue = [11, 1]", fillcolor="#e78c4b"] ;
322 -> 328 ;
329 [label="gini = 0.0\nsamples = 10\nvalue = [10, 0]", fillcolor="#e58139"] ;
328 -> 329 ;
330 [label="embarked <= 1.0\ngini = 0.5\nsamples = 2\nvalue = [1, 1]", fillcolor="#ffffff"] ;
328 -> 330 ;
331 [label="gini = 0.0\nsamples = 1\nvalue = [1, 0]", fillcolor="#e58139"] ;
330 -> 331 ;
332 [label="gini = 0.0\nsamples = 1\nvalue = [0, 1]", fillcolor="#399de5"] ;
330 -> 332 ;
}