digraph Tree {
node [shape=box, style="filled, rounded", color="black", fontname="helvetica"] ;
edge [fontname="helvetica"] ;
0 [label="adult_male <= 0.5\nentropy = 0.955\nsamples = 712\nvalue = [444, 268]", fillcolor="#f5cdb1"] ;
1 [label="class <= 1.5\nentropy = 0.868\nsamples = 280\nvalue = [81.0, 199.0]", fillcolor="#8ac5f0"] ;
0 -> 1 [labeldistance=2.5, labelangle=45, headlabel="True"] ;
2 [label="age <= 27.5\nentropy = 0.222\nsamples = 140\nvalue = [5, 135]", fillcolor="#40a1e6"] ;
1 -> 2 ;
3 [label="age <= 24.5\nentropy = 0.358\nsamples = 59\nvalue = [4, 55]", fillcolor="#47a4e7"] ;
2 -> 3 ;
4 [label="entropy = 0.232\nsamples = 53\nvalue = [2, 51]", fillcolor="#41a1e6"] ;
3 -> 4 ;
5 [label="entropy = 0.918\nsamples = 6\nvalue = [2, 4]", fillcolor="#9ccef2"] ;
3 -> 5 ;
6 [label="age <= 49.5\nentropy = 0.096\nsamples = 81\nvalue = [1, 80]", fillcolor="#3b9ee5"] ;
2 -> 6 ;
7 [label="entropy = 0.0\nsamples = 65\nvalue = [0, 65]", fillcolor="#399de5"] ;
6 -> 7 ;
8 [label="entropy = 0.337\nsamples = 16\nvalue = [1, 15]", fillcolor="#46a4e7"] ;
6 -> 8 ;
9 [label="fare <= 23.35\nentropy = 0.995\nsamples = 140\nvalue = [76, 64]", fillcolor="#fbebe0"] ;
1 -> 9 ;
10 [label="age <= 1.5\nentropy = 0.973\nsamples = 104\nvalue = [42, 62]", fillcolor="#bfdff7"] ;
9 -> 10 ;
11 [label="entropy = 0.0\nsamples = 6\nvalue = [0, 6]", fillcolor="#399de5"] ;
10 -> 11 ;
12 [label="entropy = 0.985\nsamples = 98\nvalue = [42, 56]", fillcolor="#cee6f8"] ;
10 -> 12 ;
13 [label="age <= 5.5\nentropy = 0.31\nsamples = 36\nvalue = [34, 2]", fillcolor="#e78845"] ;
9 -> 13 ;
14 [label="entropy = 0.722\nsamples = 10\nvalue = [8, 2]", fillcolor="#eca06a"] ;
13 -> 14 ;
15 [label="entropy = 0.0\nsamples = 26\nvalue = [26, 0]", fillcolor="#e58139"] ;
13 -> 15 ;
16 [label="deck <= 4.5\nentropy = 0.634\nsamples = 432\nvalue = [363, 69]", fillcolor="#ea995f"] ;
0 -> 16 [labeldistance=2.5, labelangle=-45, headlabel="False"] ;
17 [label="fare <= 6.525\nentropy = 0.966\nsamples = 74\nvalue = [45, 29]", fillcolor="#f6d2b9"] ;
16 -> 17 ;
18 [label="entropy = 0.0\nsamples = 4\nvalue = [4, 0]", fillcolor="#e58139"] ;
17 -> 18 ;
19 [label="age <= 43.0\nentropy = 0.979\nsamples = 70\nvalue = [41.0, 29.0]", fillcolor="#f7dac5"] ;
17 -> 19 ;
20 [label="entropy = 1.0\nsamples = 41\nvalue = [20, 21]", fillcolor="#f6fafe"] ;
19 -> 20 ;
21 [label="entropy = 0.85\nsamples = 29\nvalue = [21, 8]", fillcolor="#efb184"] ;
19 -> 21 ;
22 [label="fare <= 54.248\nentropy = 0.505\nsamples = 358\nvalue = [318, 40]", fillcolor="#e89152"] ;
16 -> 22 ;
23 [label="age <= 32.25\nentropy = 0.478\nsamples = 340\nvalue = [305, 35]", fillcolor="#e88f50"] ;
22 -> 23 ;
24 [label="entropy = 0.536\nsamples = 245\nvalue = [215, 30]", fillcolor="#e99355"] ;
23 -> 24 ;
25 [label="entropy = 0.297\nsamples = 95\nvalue = [90, 5]", fillcolor="#e68844"] ;
23 -> 25 ;
26 [label="fare <= 58.938\nentropy = 0.852\nsamples = 18\nvalue = [13, 5]", fillcolor="#efb185"] ;
22 -> 26 ;
27 [label="entropy = 0.918\nsamples = 6\nvalue = [2, 4]", fillcolor="#9ccef2"] ;
26 -> 27 ;
28 [label="entropy = 0.414\nsamples = 12\nvalue = [11, 1]", fillcolor="#e78c4b"] ;
26 -> 28 ;
}